-1.407991051673889160e+00 4.603462815284729004e-01 -6.080437302589416504e-01 -6.615447998046875000e-01 -7.575408816337585449e-01 -3.654795587062835693e-01 4.450339078903198242e-01 -4.067176878452301025e-01 8.448448777198791504e-01 4.543997049331665039e-01 -1.370804160833358765e-01 7.047193646430969238e-01 2.878675699234008789e+00 -1.860378980636596680e-01 6.875835061073303223e-01 5.536423921585083008e-01 -1.587757229804992676e+00 -1.033335685729980469e+00 -9.779915958642959595e-02 7.595506310462951660e-01 5.821465849876403809e-01 3.110708594322204590e-01 4.517050459980964661e-02 1.845554351806640625e+00 -2.871762514114379883e-01 -1.448493957519531250e+00 1.956693828105926514e-01 -2.770025134086608887e-01 -7.270442843437194824e-01 1.036321893334388733e-01 1.093555927276611328e+00 -1.052872300148010254e+00
-5.215975046157836914e-01 -9.056372046470642090e-01 1.675003528594970703e+00 -1.119304060935974121e+00 -7.546436190605163574e-01 -6.634210348129272461e-01 -4.479642510414123535e-01 -5.443637967109680176e-01 -4.104693830013275146e-01 9.787779450416564941e-01 -7.080220431089401245e-02 -2.109992742538452148e+00 1.156919836997985840e+00 -1.097730323672294617e-01 -9.771082401275634766e-01 5.510725378990173340e-01 3.046946823596954346e-01 2.655162513256072998e-01 -2.387021064758300781e+00 8.522388935089111328e-01 -6.986024379730224609e-01 -8.374801278114318848e-01 6.078739166259765625e-01 1.146666035056114197e-01 -1.261828660964965820e+00 -3.640887439250946045e-01 1.880765318870544434e+00 -3.544099330902099609e-01 -1.250564098358154297e+00 4.627404808998107910e-01 -2.535110414028167725e-01 -1.607171654701232910e+00
-2.929032146930694580e-01 3.671118319034576416e-01 -8.082338571548461914e-01 -1.338903009891510010e-01 -2.022589921951293945e+00 -3.694496676325798035e-02 1.631455421447753906e-01 1.914960443973541260e-01 7.362791299819946289e-01 3.105339705944061279e-01 8.162888884544372559e-01 -4.209477901458740234e-01 -1.383581519126892090e+00 1.060696244239807129e+00 1.024992942810058594e+00 -1.335666418075561523e+00 -5.409315824508666992e-01 -9.121161699295043945e-01 1.057586789131164551e+00 -8.598824143409729004e-01 7.346259057521820068e-02 1.640307545661926270e+00 -6.576685905456542969e-01 -8.111955523490905762e-01 2.163937568664550781e+00 1.092044472694396973e+00 1.625306844711303711e+00 9.078322649002075195e-01 4.452361166477203369e-01 1.177310347557067871e+00 1.123713850975036621e+00 1.098226234316825867e-01
-5.509614348411560059e-01 1.550919860601425171e-01 -3.450109064579010010e-01 -1.256711184978485107e-01 -1.449984669685363770e+00 -3.333636820316314697e-01 -1.675044775009155273e+00 -6.076941490173339844e-01 -8.547183871269226074e-01 2.975756525993347168e-01 1.761833071708679199e+00 6.544695701450109482e-03 3.807446658611297607e-01 5.567404031753540039e-01 -7.704975605010986328e-01 3.563043177127838135e-01 -3.613905012607574463e-01 1.871428132057189941e+00 -5.960696339607238770e-01 6.731110066175460815e-02 -6.883163452148437500e-01 8.574424386024475098e-01 -1.517266184091567993e-01 8.246064186096191406e-01 -1.757546812295913696e-01 1.627060651779174805e+00 -1.665076732635498047e+00 -7.518100738525390625e-01 -8.958311080932617188e-01 4.518133401870727539e-02 -3.592218458652496338e-01 1.245817303657531738e+00
1.541621327400207520e+00 2.360916137695312500e+00 -1.091491222381591797e+00 2.002900838851928711e+00 -6.256389617919921875e-01 8.352705836296081543e-01 -1.489758491516113281e+00 1.544998168945312500e+00 3.379417359828948975e-01 5.891362428665161133e-01 -3.506303429603576660e-01 5.390619635581970215e-01 3.331931233406066895e-01 -8.320377767086029053e-02 1.121838808059692383e+00 1.206596493721008301e+00 2.151197433471679688e+00 7.317014336585998535e-01 2.474602013826370239e-01 1.595575734972953796e-02 3.832782804965972900e-01 -1.100964665412902832e+00 -1.791274547576904297e+00 9.857156276702880859e-01 1.651522636413574219e+00 -1.057698488235473633e+00 9.561481326818466187e-02 -1.097520068287849426e-01 3.094525933265686035e-01 -1.897447258234024048e-01 -9.957393407821655273e-01 -7.449256181716918945e-01
-3.180498480796813965e-01 -1.701967477798461914e+00 5.298424363136291504e-01 1.176350638270378113e-01 -1.356731653213500977e+00 2.794828653335571289e+00 -7.739476859569549561e-02 -4.842915236949920654e-01 -4.637686610221862793e-01 -1.460627555847167969e+00 1.035682410001754761e-01 -9.757749438285827637e-01 8.342242240905761719e-01 6.845631599426269531e-01 8.489436507225036621e-01 7.077897787094116211e-01 -5.060548782348632812e-01 -3.214421123266220093e-02 2.782932296395301819e-02 3.915420174598693848e-01 -1.301373124122619629e+00 -7.969102859497070312e-01 -1.725455045700073242e+00 3.347173631191253662e-01 1.794767528772354126e-01 -9.829814434051513672e-01 -7.255436182022094727e-01 -1.785123199224472046e-01 -9.146316051483154297e-01 -1.815039157867431641e+00 7.492847442626953125e-01 -1.641243994235992432e-01
-1.031479477882385254e+00 -4.202905297279357910e-01 2.142532348632812500e+00 -1.172281146049499512e+00 -2.530253231525421143e-01 1.264695286750793457e+00 8.372648358345031738e-01 -3.850530087947845459e-01 3.407423496246337891e-01 2.565513849258422852e-01 -3.717537522315979004e-01 -1.116260960698127747e-01 -2.306663691997528076e-01 2.794693410396575928e-01 8.214178681373596191e-01 -3.577472865581512451e-01 -1.334304690361022949e+00 -2.235740274190902710e-01 -1.783754587173461914e+00 -6.901940107345581055e-01 1.668441742658615112e-01 7.095442414283752441e-01 -6.028137207031250000e-01 -1.093391850590705872e-01 1.809265851974487305e+00 -1.527497529983520508e+00 -1.483416318893432617e+00 1.236994743347167969e+00 1.627217054367065430e+00 -1.004375815391540527e+00 -3.307576179504394531e-01 1.893030166625976562e+00
-1.511682391166687012e+00 1.149360775947570801e+00 -9.097238183021545410e-01 1.478147745132446289e+00 1.201595783233642578e+00 -1.331555962562561035e+00 4.807524085044860840e-01 7.558973431587219238e-01 -1.320633530616760254e+00 -1.181149959564208984e+00 2.277394056320190430e+00 4.536781907081604004e-01 -5.462759137153625488e-01 -1.748701214790344238e+00 1.712366789579391479e-01 -1.029038906097412109e+00 2.685731351375579834e-01 -2.302936911582946777e-01 -1.845639824867248535e+00 1.480468869209289551e+00 2.344331145286560059e-01 -1.090084910392761230e-01 -6.312845349311828613e-01 -1.861785054206848145e-01 9.561614394187927246e-01 9.198192358016967773e-01 1.081932425498962402e+00 -4.451091885566711426e-01 8.691326379776000977e-01 9.599958658218383789e-01 8.716393113136291504e-01 1.022303593344986439e-03
4.080811142921447754e-01 -6.277962774038314819e-02 -6.052913069725036621e-01 8.403667807579040527e-01 -2.929264307022094727e-02 9.347543120384216309e-01 9.707646816968917847e-02 -1.777642726898193359e+00 1.144367456436157227e+00 -1.878213286399841309e-01 -1.676238059997558594e+00 5.512381196022033691e-01 2.642506599426269531e+00 -5.732407569885253906e-01 1.880042195320129395e+00 -3.236145675182342529e-01 -4.078159034252166748e-01 1.154648303985595703e+00 8.547999858856201172e-01 -1.522297620773315430e+00 -4.179778993129730225e-01 1.312520503997802734e+00 1.990290880203247070e+00 -1.678835868835449219e+00 5.903307795524597168e-01 -1.295282244682312012e-01 1.193845868110656738e+00 2.244523525238037109e+00 9.083351492881774902e-01 -7.114235758781433105e-01 7.133349776268005371e-01 8.359146863222122192e-02
1.180590391159057617e+00 5.036950707435607910e-01 -1.273700118064880371e+00 2.837082862854003906e+00 -1.310921311378479004e+00 -1.152373030781745911e-01 1.162620067596435547e+00 -3.288359940052032471e-01 1.252025961875915527e-01 8.348332345485687256e-02 8.482660055160522461e-01 2.958313822746276855e-01 -6.409453749656677246e-01 -2.514093816280364990e-01 3.539055585861206055e-02 1.092819809913635254e+00 -4.604244530200958252e-01 -9.516574144363403320e-01 3.745295107364654541e-01 -1.794192790985107422e+00 5.254635810852050781e-01 4.668348133563995361e-01 3.235583007335662842e-01 -1.587136149406433105e+00 6.464571356773376465e-01 4.637507498264312744e-01 -2.005667209625244141e+00 -5.021921917796134949e-02 4.268418550491333008e-01 -4.692305326461791992e-01 3.520966768264770508e-01 3.538647592067718506e-01
4.238933622837066650e-01 6.011408567428588867e-01 2.917623519897460938e-01 -4.353962540626525879e-01 -1.522426843643188477e+00 1.961860299110412598e+00 2.411669731140136719e+00 1.536597490310668945e+00 1.408991336822509766e+00 -2.690572440624237061e-01 -4.204275906085968018e-01 3.429331481456756592e-01 -8.832499384880065918e-03 4.991664886474609375e-01 1.064529538154602051e+00 5.275883674621582031e-01 1.989523768424987793e-01 2.923703789710998535e-01 -1.792313009500503540e-01 9.987432360649108887e-01 -9.180928766727447510e-02 -1.048199757933616638e-01 6.615285873413085938e-01 -1.362721443176269531e+00 1.558502316474914551e+00 -1.199210286140441895e+00 8.961984515190124512e-01 -7.784614562988281250e-01 8.644197583198547363e-01 9.503253698348999023e-01 -9.755911827087402344e-01 7.522855997085571289e-01
2.122476845979690552e-01 -5.958201289176940918e-01 4.224069416522979736e-01 4.828746616840362549e-01 -4.772101044654846191e-01 -1.477411866188049316e+00 -3.485964536666870117e-01 2.286934405565261841e-01 -2.266180664300918579e-01 4.520395696163177490e-01 -1.751501441001892090e+00 -2.734151780605316162e-01 -1.005160570144653320e+00 7.442145794630050659e-02 -4.732934236526489258e-01 5.620447397232055664e-01 3.203392326831817627e-01 -4.324520826339721680e-01 2.285732030868530273e+00 -3.173238635063171387e-01 5.956344604492187500e-01 6.016650199890136719e-01 4.064226448535919189e-01 1.022288501262664795e-01 -8.405942916870117188e-01 -3.488922834396362305e+00 -8.887217044830322266e-01 1.782590389251708984e+00 -2.014331817626953125e+00 -2.617487430572509766e+00 -4.301399588584899902e-01 -1.774756431579589844e+00
1.841807961463928223e-01 -2.675330042839050293e-01 9.829531908035278320e-01 3.594748079776763916e-01 2.574582397937774658e-01 6.003642082214355469e-01 1.304141044616699219e+00 -6.021757125854492188e-01 -2.795660197734832764e-01 -3.430983796715736389e-02 4.732035994529724121e-01 -1.369053959846496582e+00 -2.601029872894287109e-01 -4.103083908557891846e-01 4.014517068862915039e-01 -3.698958083987236023e-02 8.613973259925842285e-01 5.006664991378784180e-01 1.370839476585388184e+00 -2.358085662126541138e-01 1.100142002105712891e+00 -8.898265957832336426e-01 1.500273644924163818e-01 -8.341901302337646484e-01 -8.967180252075195312e-01 2.650361657142639160e-01 -8.865187764167785645e-01 4.232457876205444336e-01 8.055851459503173828e-01 1.350146055221557617e+00 -2.422343015670776367e+00 2.378834724426269531e+00
4.228592514991760254e-01 -1.027621150016784668e+00 -4.879702627658843994e-01 -5.218156576156616211e-01 2.464963197708129883e-01 -9.408120065927505493e-02 1.037463665008544922e+00 1.955178380012512207e+00 2.873846590518951416e-01 -1.630915284156799316e+00 -1.493793368339538574e+00 1.507982969284057617e+00 -1.034649372100830078e+00 1.430113673210144043e+00 1.533439517021179199e+00 1.149690300226211548e-01 -2.231365442276000977e+00 4.911912083625793457e-01 1.536408662796020508e+00 1.312263458967208862e-01 -6.209622025489807129e-01 -7.469772696495056152e-01 8.883429169654846191e-01 7.637440562248229980e-01 -5.467253327369689941e-01 -8.409070372581481934e-01 -1.469500456005334854e-02 5.105757117271423340e-01 1.370257973670959473e+00 5.440623164176940918e-01 1.189455389976501465e+00 5.379436910152435303e-02
-7.901471853256225586e-01 1.564904212951660156e+00 -6.681362632662057877e-03 -4.417507350444793701e-01 -6.217144131660461426e-01 -5.052612423896789551e-01 2.323753535747528076e-01 8.459753394126892090e-01 -1.028096899390220642e-01 -7.342308759689331055e-01 -8.067174255847930908e-02 1.114714052528142929e-02 3.076123297214508057e-01 -4.920352101325988770e-01 -3.426564633846282959e-01 3.822204470634460449e-01 1.024165153503417969e+00 1.066920608282089233e-01 -1.134889125823974609e+00 6.083744764328002930e-01 -1.723435997962951660e+00 6.119614094495773315e-02 5.121296644210815430e-01 1.535525638610124588e-02 1.389447927474975586e+00 -9.863557815551757812e-01 2.210933923721313477e+00 -1.745610833168029785e-01 2.894366085529327393e-01 1.373985767364501953e+00 -1.243690252304077148e+00 -1.718969494104385376e-01
-9.311161637306213379e-01 -1.581191182136535645e+00 1.108923256397247314e-01 8.188616633415222168e-01 1.034098029136657715e+00 1.872592568397521973e-01 1.042719841003417969e+00 -2.005444839596748352e-02 1.402891039848327637e+00 -9.449444413185119629e-01 1.101212263107299805e+00 -1.918260574340820312e+00 -5.393831729888916016e-01 -2.960518002510070801e-01 -1.379425287246704102e+00 4.869488775730133057e-01 -1.592343807220458984e+00 -3.778493702411651611e-01 4.366650283336639404e-01 1.173639059066772461e+00 1.934139728546142578e+00 -6.928061842918395996e-01 -8.783447146415710449e-01 8.688538074493408203e-01 -1.337698698043823242e+00 -3.984699249267578125e-01 -3.478984832763671875e-01 1.498430609703063965e+00 5.359162762761116028e-02 1.180491566658020020e+00 -2.522151708602905273e+00 -5.128885507583618164e-01
-1.220916867256164551e+00 5.364084839820861816e-01 -8.356583118438720703e-01 4.130739867687225342e-01 -4.105217456817626953e-01 -1.019658327102661133e+00 2.188547134399414062e+00 3.978779315948486328e-01 -1.401268124580383301e+00 -5.930492877960205078e-01 3.780654966831207275e-01 6.777040362358093262e-01 -1.330812096595764160e+00 8.650608062744140625e-01 -2.080036640167236328e+00 -1.578125476837158203e+00 -4.350200295448303223e-01 -8.881274461746215820e-01 -1.511261940002441406e+00 -1.011119246482849121e+00 -1.115618109703063965e+00 -4.600044786930084229e-01 3.061587214469909668e-01 3.334530889987945557e-01 -9.215766787528991699e-01 -1.246150061488151550e-01 1.694628000259399414e+00 -1.868170380592346191e+00 1.482867836952209473e+00 2.761688530445098877e-01 1.116516351699829102e+00 -9.674303531646728516e-01
1.169162988662719727e+00 1.642026543617248535e+00 -5.919255018234252930e-01 1.495424509048461914e-01 -3.205641210079193115e-01 5.177088379859924316e-01 1.593564629554748535e+00 -1.758457660675048828e+00 7.429033517837524414e-01 9.813263416290283203e-01 2.283099591732025146e-01 1.671394348144531250e+00 -9.026317596435546875e-01 1.622911334037780762e+00 1.192636489868164062e+00 -1.022231459617614746e+00 1.218014597892761230e+00 1.586535930633544922e+00 -8.726382255554199219e-01 -1.001955866813659668e+00 1.603612184524536133e+00 2.737179994583129883e-01 -5.986689925193786621e-01 -7.806550860404968262e-01 -1.282283514738082886e-01 -1.310557365417480469e+00 1.095612049102783203e+00 1.806795150041580200e-01 1.429284930229187012e+00 7.086055278778076172e-01 -3.349620103836059570e-01 -8.577880859375000000e-01
-1.487481147050857544e-01 -1.946674883365631104e-01 1.750918507575988770e+00 -7.215136289596557617e-01 -8.809144496917724609e-01 1.169452309608459473e+00 8.759831190109252930e-01 -6.187375187873840332e-01 -1.591169834136962891e+00 8.177564144134521484e-01 7.855022698640823364e-02 -2.649655818939208984e+00 -1.342195630073547363e+00 1.955352872610092163e-01 -1.066539764404296875e+00 -1.136793643236160278e-01 9.668970853090286255e-02 -1.051183223724365234e+00 -1.535609960556030273e+00 4.645216092467308044e-02 5.469852685928344727e-01 8.303841352462768555e-01 3.556838929653167725e-01 2.661585509777069092e-01 9.836449027061462402e-01 -2.814861834049224854e-01 1.911322593688964844e+00 6.613551974296569824e-01 5.245793461799621582e-01 6.893135905265808105e-01 1.695020437240600586e+00 -1.808422356843948364e-01
3.430874049663543701e-01 -2.148446083068847656e+00 2.157428115606307983e-02 -7.113825678825378418e-01 5.972827076911926270e-01 2.316382676362991333e-01 -7.029369473457336426e-01 -2.034963667392730713e-01 1.869062483310699463e-01 2.093475759029388428e-01 9.944447278976440430e-01 -1.711415052413940430e+00 2.723125517368316650e-01 1.353902578353881836e+00 -2.505623340606689453e+00 -1.409235239028930664e+00 1.951313763856887817e-01 1.644528031349182129e+00 1.296634674072265625e+00 1.291700720787048340e+00 7.137370705604553223e-01 -1.409081935882568359e+00 5.494340322911739349e-03 1.436438798904418945e+00 4.070606529712677002e-01 1.576408624649047852e+00 6.513326168060302734e-01 -5.743803381919860840e-01 -4.112525284290313721e-02 -2.770333588123321533e-01 -3.897995054721832275e-01 1.792194843292236328e-01
1.923338472843170166e-01 -1.460806965827941895e+00 5.773566365242004395e-01 -2.139261245727539062e+00 8.196223974227905273e-01 -9.837322235107421875e-01 -3.345765769481658936e-01 5.646041594445705414e-03 2.170991659164428711e+00 9.839265942573547363e-01 1.445148468017578125e+00 -8.049536496400833130e-02 7.536661624908447266e-01 1.708076000213623047e+00 5.175270140171051025e-02 -1.695378184318542480e+00 7.668913006782531738e-01 -2.920412458479404449e-03 -2.623152256011962891e+00 -1.761205434799194336e+00 -8.816578984260559082e-01 -6.276934146881103516e-01 -1.370769262313842773e+00 1.310326099395751953e+00 1.031118512153625488e+00 7.768446207046508789e-01 -7.944235801696777344e-01 -2.852930128574371338e-01 1.091485023498535156e+00 8.702655136585235596e-02 -5.652565956115722656e-01 -1.238160878419876099e-01
-9.098277240991592407e-02 -3.793348670005798340e-01 -2.091098725795745850e-01 -2.331887483596801758e+00 -2.572175562381744385e-01 1.660035550594329834e-01 -4.317041337490081787e-01 9.531915783882141113e-01 -3.360508978366851807e-01 7.175385951995849609e-02 -6.283299922943115234e-01 -1.094711422920227051e+00 -8.165727257728576660e-01 1.924642324447631836e-01 3.974569141864776611e-01 5.956325531005859375e-01 3.642779290676116943e-01 1.334981560707092285e+00 -6.636892259120941162e-02 -9.253886938095092773e-01 -9.565579295158386230e-01 -1.201583966612815857e-01 -3.230751752853393555e-01 2.121195554733276367e+00 1.206102132797241211e+00 -2.734967231750488281e+00 -6.385816335678100586e-01 4.355436563491821289e-02 -1.563319802284240723e+00 5.171984434127807617e-01 6.721800565719604492e-01 1.141493916511535645e+00
-1.468652009963989258e+00 1.363449096679687500e+00 1.493646502494812012e+00 1.717162966728210449e+00 3.425172269344329834e-01 -2.725524902343750000e-01 -2.237663030624389648e+00 -1.257854700088500977e+00 -2.082167625427246094e+00 -7.374670505523681641e-01 -7.119138836860656738e-01 -5.940548181533813477e-01 -1.276854991912841797e+00 9.912352561950683594e-01 8.593016862869262695e-01 -1.964670062065124512e+00 1.489245742559432983e-01 7.404396533966064453e-01 1.381536364555358887e+00 -6.459941715002059937e-02 5.143941640853881836e-01 2.134105749428272247e-02 1.107900857925415039e+00 -6.476372480392456055e-01 -1.126563787460327148e+00 -3.697093725204467773e-01 5.251296758651733398e-01 1.113933324813842773e+00 -5.743600726127624512e-01 -5.990667343139648438e-01 4.521279335021972656e-01 -1.185783624649047852e+00
8.454008400440216064e-02 -9.577929973602294922e-01 -2.587562799453735352e-01 1.300220370292663574e+00 -8.107578754425048828e-01 -7.454611063003540039e-01 -5.334790945053100586e-01 6.717439889907836914e-01 -1.185363173484802246e+00 1.005219936370849609e+00 -1.525369882583618164e+00 8.978348374366760254e-01 -1.417823672294616699e+00 -5.312544107437133789e-01 5.231403708457946777e-01 1.345358014106750488e+00 5.492998361587524414e-01 -1.619191884994506836e+00 -4.232664704322814941e-01 1.338605165481567383e+00 -5.727596282958984375e-01 -2.270536899566650391e+00 -4.335213899612426758e-01 -1.300042510032653809e+00 -1.286968469619750977e+00 -6.109465956687927246e-01 3.724485337734222412e-01 1.525568723678588867e+00 1.443713307380676270e+00 3.026239760220050812e-02 1.779787421226501465e+00 -3.621951639652252197e-01
2.200507074594497681e-01 -9.080994129180908203e-01 -8.869584798812866211e-01 1.322596549987792969e+00 7.209149599075317383e-01 1.150571942329406738e+00 -5.651078224182128906e-01 -6.517395973205566406e-01 7.980474233627319336e-01 -4.263554215431213379e-01 3.033780455589294434e-01 -1.961058020591735840e+00 -2.042838335037231445e-01 -4.460425376892089844e-01 5.741466283798217773e-01 -9.633020758628845215e-01 1.183935552835464478e-01 6.033298373222351074e-01 -1.221866607666015625e+00 6.772499680519104004e-01 -5.569869279861450195e-02 1.186306238174438477e+00 8.750669658184051514e-02 -1.220203638076782227e+00 8.303549289703369141e-01 8.310234546661376953e-02 8.333696126937866211e-01 1.239727020263671875e+00 1.611293554306030273e+00 1.738204002380371094e+00 1.000677794218063354e-01 2.200234413146972656e+00
-1.024822354316711426e+00 1.091447770595550537e-01 -1.139090299606323242e+00 -7.251014113426208496e-01 -1.212280318140983582e-01 -1.797620177268981934e+00 4.930429756641387939e-01 9.688582420349121094e-01 1.790746301412582397e-01 -6.863312721252441406e-01 2.529985308647155762e-01 1.666312098503112793e+00 -3.160521745681762695e+00 3.925046324729919434e-01 -8.250920772552490234e-01 7.675805687904357910e-01 9.641032814979553223e-01 -7.966663837432861328e-01 -3.351732492446899414e-01 9.611933231353759766e-01 2.088010609149932861e-01 -3.620656430721282959e-01 -1.562418699264526367e+00 -3.628879189491271973e-01 -1.898879885673522949e+00 1.451537847518920898e+00 2.270367145538330078e+00 1.168077826499938965e+00 -8.315404653549194336e-01 5.028104186058044434e-01 5.701256990432739258e-01 1.144823193550109863e+00
9.324759840965270996e-01 1.666011214256286621e+00 5.677912831306457520e-01 -1.429575867950916290e-02 7.931140065193176270e-01 7.507294882088899612e-03 7.228828668594360352e-01 -1.083770513534545898e+00 -4.951567351818084717e-01 -2.918738424777984619e-01 6.120077967643737793e-01 -8.798615932464599609e-01 5.350866913795471191e-01 -1.211520314216613770e+00 -7.947106957435607910e-01 1.597046613693237305e+00 2.081880569458007812e-01 2.021816015243530273e+00 8.328795433044433594e-01 2.394943714141845703e+00 -1.691767945885658264e-02 -2.164589881896972656e+00 -1.122303485870361328e+00 4.445411264896392822e-02 5.528451800346374512e-01 -1.233798027038574219e+00 -8.282137513160705566e-01 5.056885480880737305e-01 -1.129099965095520020e+00 7.905541658401489258e-01 -1.750318527221679688e+00 3.367206454277038574e-01
-4.134161770343780518e-01 1.528716564178466797e+00 -1.084904000163078308e-01 1.180919170379638672e+00 -2.473416328430175781e+00 -2.610568106174468994e-01 -1.027878046035766602e+00 -3.782462328672409058e-02 5.865396261215209961e-01 -7.553751468658447266e-01 -1.289887547492980957e+00 6.742273569107055664e-01 2.084661275148391724e-01 -2.309290617704391479e-01 -1.335207462310791016e+00 5.362402796745300293e-01 1.436300873756408691e+00 5.608853697776794434e-01 -1.687024950981140137e+00 -7.427810877561569214e-02 -1.126535654067993164e+00 -8.219056129455566406e-01 2.094625949859619141e+00 -7.970829028636217117e-04 1.091549754142761230e+00 -1.436836957931518555e+00 -1.490824222564697266e+00 8.847491741180419922e-01 3.395973443984985352e-01 -1.669649124145507812e+00 -1.425976157188415527e-01 1.259281486272811890e-01
-1.562973141670227051e+00 3.185860812664031982e-01 1.702160358428955078e+00 5.974813699722290039e-01 6.028378009796142578e-01 6.633816361427307129e-01 1.622777700424194336e+00 9.193584322929382324e-01 1.618301749229431152e+00 -9.402257800102233887e-01 2.039395719766616821e-01 2.194464951753616333e-01 -1.321729540824890137e+00 -2.672196179628372192e-02 2.547029256820678711e+00 -4.713630676269531250e-01 -7.772582173347473145e-01 -1.305042982101440430e+00 7.202121019363403320e-01 -8.699594140052795410e-01 -2.357307076454162598e-01 1.002421379089355469e+00 6.495040655136108398e-01 -1.025384426116943359e+00 -9.643330574035644531e-01 9.425691366195678711e-01 -4.297332763671875000e-01 2.099200010299682617e+00 1.460919678211212158e-01 1.405238389968872070e+00 1.267444491386413574e+00 4.605776965618133545e-01
7.363435029983520508e-01 6.450153589248657227e-01 -8.773743510246276855e-01 1.532341361045837402e+00 1.049045324325561523e-01 3.369675278663635254e-01 -5.230548232793807983e-02 8.148362040519714355e-01 -6.037585735321044922e-01 -1.217052221298217773e+00 5.067033171653747559e-01 -8.009926229715347290e-02 4.150139987468719482e-01 -6.213663220405578613e-01 -6.525918841361999512e-01 1.687383890151977539e+00 1.096360445022583008e+00 8.203018307685852051e-01 1.106273531913757324e+00 -7.521132230758666992e-01 5.701551437377929688e-01 9.044851660728454590e-01 -5.923430919647216797e-01 -1.500643849372863770e+00 1.040476799011230469e+00 1.602266788482666016e+00 3.556805253028869629e-01 1.386649757623672485e-01 -3.247652053833007812e-01 -8.038997054100036621e-01 2.176057994365692139e-01 -9.028851389884948730e-01
-4.239368438720703125e-02 3.538188934326171875e-01 1.285942912101745605e+00 -1.691440701484680176e+00 7.189667224884033203e-01 -9.591506719589233398e-01 4.470598325133323669e-02 -4.121174812316894531e-01 -6.046619638800621033e-02 -1.363335967063903809e+00 -1.339442491531372070e+00 -4.711010754108428955e-01 -2.000504016876220703e+00 -3.967041522264480591e-02 -1.676077842712402344e+00 1.050683856010437012e+00 8.443635702133178711e-01 -2.446265369653701782e-01 -1.774864315986633301e+00 -7.459284067153930664e-01 -1.609060317277908325e-01 -4.965099096298217773e-01 -1.719829201698303223e+00 3.801416158676147461e-01 5.274674296379089355e-01 1.952398717403411865e-01 -2.216739803552627563e-01 1.362652778625488281e+00 8.994633555412292480e-01 -2.319998741149902344e+00 7.332134842872619629e-01 1.071095824241638184e+00
-7.885625362396240234e-01 3.280480504035949707e-01 -3.173049390316009521e-01 1.773993074893951416e-01 -7.406705021858215332e-01 6.940595507621765137e-01 1.688739061355590820e+00 -3.316756188869476318e-01 2.533255219459533691e-01 -8.284389972686767578e-01 -4.929472804069519043e-01 -2.846390306949615479e-01 -1.631235599517822266e+00 7.033795714378356934e-01 9.016897678375244141e-01 1.484987139701843262e+00 3.469448089599609375e-01 1.336836099624633789e+00 -1.216449618339538574e+00 7.555617094039916992e-01 -5.927579998970031738e-01 2.880629599094390869e-01 7.528285384178161621e-01 -9.798766970634460449e-01 -9.044722318649291992e-01 9.941949844360351562e-01 -5.557749420404434204e-02 -2.479077279567718506e-01 -1.903845220804214478e-01 4.511674493551254272e-02 4.088031649589538574e-01 8.138187974691390991e-02
7.723487168550491333e-02 -6.123827770352363586e-02 -2.027228593826293945e+00 -2.887575924396514893e-01 -1.002477049827575684e+00 3.673591315746307373e-01 -1.853609323501586914e+00 -3.454720973968505859e-01 -2.416796445846557617e+00 2.771134972572326660e-01 -5.336933732032775879e-01 3.861384987831115723e-01 -4.862495958805084229e-01 4.260675013065338135e-01 3.755339682102203369e-01 -5.409830808639526367e-02 -7.835271954536437988e-01 2.634379267692565918e-01 3.207882940769195557e-01 -4.386534392833709717e-01 -1.364548653364181519e-01 -1.109391689300537109e+00 1.185928106307983398e+00 1.554578840732574463e-01 -9.307968020439147949e-01 -4.006284475326538086e-01 8.386332988739013672e-01 1.072095274925231934e+00 -3.204316198825836182e-01 7.442905008792877197e-02 1.702060341835021973e+00 9.503615498542785645e-01
7.196187376976013184e-01 8.360898494720458984e-01 1.735732197761535645e+00 3.821694478392601013e-02 1.847773790359497070e+00 -2.392705380916595459e-01 2.491773217916488647e-01 2.425805181264877319e-01 -8.990059494972229004e-01 -1.254837155342102051e+00 -4.582327604293823242e-01 -8.694466352462768555e-01 4.312633872032165527e-01 -2.264791011810302734e+00 1.440811038017272949e+00 2.171227484941482544e-01 9.562277197837829590e-01 9.274184703826904297e-02 1.153912067413330078e+00 5.560302138328552246e-01 -9.467913210391998291e-02 5.621374249458312988e-01 -8.713123202323913574e-02 8.823241107165813446e-03 -1.667412817478179932e-01 2.113812685012817383e+00 7.539334893226623535e-01 1.295505166053771973e-01 -6.284584403038024902e-01 -6.864884495735168457e-02 -5.971519351005554199e-01 1.415403366088867188e+00
1.052774786949157715e+00 -1.572900295257568359e+00 1.883822321891784668e+00 -1.079172015190124512e+00 3.806385397911071777e-01 -3.335322141647338867e-01 3.244918882846832275e-01 -1.432893633842468262e+00 -8.738099932670593262e-01 7.900068759918212891e-01 -3.638349473476409912e-02 -7.419894337654113770e-01 -2.072391062974929810e-01 1.644187450408935547e+00 9.592142105102539062e-01 -2.535762071609497070e+00 1.428444147109985352e+00 -2.740177214145660400e-01 8.332113623619079590e-01 1.687711626291275024e-01 -7.541828155517578125e-01 -9.166162014007568359e-01 -5.541079491376876831e-02 -1.180128812789916992e+00 2.859868526458740234e+00 -7.280955314636230469e-01 -1.278221130371093750e+00 -5.649826526641845703e-01 -8.051709532737731934e-01 8.755540847778320312e-01 -5.398368835449218750e-01 -3.344931006431579590e-01
-7.575729489326477051e-02 2.937354892492294312e-02 -5.995252728462219238e-01 2.204568497836589813e-02 -2.537434577941894531e+00 -6.895421743392944336e-01 -1.616225481033325195e+00 6.799796223640441895e-01 3.534180223941802979e-01 -4.278827011585235596e-01 6.458406448364257812e-01 6.473826766014099121e-01 -1.576223969459533691e+00 -3.989227414131164551e-01 -4.710088670253753662e-01 1.331557989120483398e+00 -8.850578665733337402e-01 -1.061494469642639160e+00 2.479732751846313477e+00 4.900083839893341064e-01 -5.147580504417419434e-01 6.762975454330444336e-01 -1.848895549774169922e+00 2.841529846191406250e-01 -7.806910276412963867e-01 1.056830406188964844e+00 6.465871334075927734e-01 1.628567099571228027e+00 9.999961853027343750e-01 -1.117145776748657227e+00 -7.435844540596008301e-01 4.033870100975036621e-01
4.336967468261718750e-01 3.423944115638732910e-01 -1.557117104530334473e+00 -1.714022755622863770e-01 3.285338282585144043e-01 -1.833357334136962891e+00 -3.498983979225158691e-01 3.066748380661010742e-02 -1.397587805986404419e-01 -4.281241297721862793e-01 -2.986890673637390137e-01 -7.659087181091308594e-01 -1.806265950202941895e+00 -5.079831480979919434e-01 -1.762153148651123047e+00 1.232550144195556641e+00 3.198957741260528564e-01 -3.012970264535397291e-04 -4.774931967258453369e-01 9.080001115798950195e-01 1.393609523773193359e+00 1.578525662422180176e+00 3.881349265575408936e-01 6.765946745872497559e-01 5.120368003845214844e-01 9.311425685882568359e-01 -8.975835144519805908e-02 1.521697640419006348e-01 1.727819442749023438e-01 9.792640805244445801e-01 -4.391916096210479736e-01 1.608369708061218262e+00
1.204524710774421692e-01 -2.288073003292083740e-01 -4.972247779369354248e-01 4.643189311027526855e-01 1.396160339936614037e-03 2.332684993743896484e+00 -2.289225012063980103e-01 9.511888027191162109e-01 1.260060548782348633e+00 -3.155128955841064453e-01 3.074828386306762695e-01 3.568935692310333252e-01 4.678802490234375000e-01 7.385842502117156982e-02 -4.379976689815521240e-01 1.634354114532470703e+00 1.377470195293426514e-01 8.366522789001464844e-01 1.742426156997680664e-01 -2.034390926361083984e+00 -1.365845948457717896e-01 -1.112772822380065918e-01 -1.376438260078430176e+00 -1.757537484169006348e+00 -5.196752548217773438e-01 3.054307587444782257e-02 -2.274876534938812256e-01 -2.013128280639648438e+00 9.914966225624084473e-01 -1.853977680206298828e+00 1.412449836730957031e+00 -7.230973839759826660e-01
-1.155402213335037231e-01 -1.888853907585144043e+00 -8.619599342346191406e-01 -3.607363998889923096e-01 -4.695971310138702393e-01 -6.334424614906311035e-01 -1.257362246513366699e+00 4.475507736206054688e-01 -1.356479883193969727e+00 -1.727315068244934082e+00 1.029576182365417480e+00 -1.506136775016784668e+00 -1.130370140075683594e+00 3.606441318988800049e-01 7.715436816215515137e-01 -5.791590809822082520e-01 1.731891393661499023e+00 2.529779970645904541e-01 5.164589881896972656e-01 1.535172581672668457e+00 1.016131281852722168e+00 1.742675185203552246e+00 -6.644806861877441406e-01 -1.136824846267700195e+00 -2.544443607330322266e+00 6.493728607892990112e-02 -1.796696305274963379e+00 -1.357086658477783203e+00 1.311050534248352051e+00 -1.345332622528076172e+00 3.129343092441558838e-01 -2.092100620269775391e+00
5.228757262229919434e-01 -7.333153486251831055e-01 9.826806783676147461e-01 -2.870025858283042908e-02 7.893602848052978516e-01 -1.061206817626953125e+00 -1.661715626716613770e+00 -8.727201074361801147e-02 -3.532309532165527344e-01 3.603231012821197510e-01 5.570051074028015137e-01 -1.563414573669433594e+00 7.547197341918945312e-01 -3.315874636173248291e-01 2.619318366050720215e-01 -2.032391354441642761e-02 -1.219409108161926270e+00 4.823445677757263184e-01 -1.630325675010681152e+00 1.078328609466552734e+00 2.392722517251968384e-01 -3.473469316959381104e-01 -2.754302322864532471e-01 -2.530560791492462158e-01 1.693833827972412109e+00 -4.816335737705230713e-01 -4.915705025196075439e-01 -2.056802362203598022e-01 5.222624912858009338e-02 1.162307024002075195e+00 -5.435785055160522461e-01 -1.520741701126098633e+00
1.003168940544128418e+00 -2.498412728309631348e-01 -1.947587132453918457e-01 -8.020105361938476562e-01 3.703505396842956543e-01 7.693259119987487793e-01 -3.993537724018096924e-01 2.970120608806610107e-01 1.896417587995529175e-01 1.317707777023315430e+00 -6.628384590148925781e-01 -6.965248584747314453e-01 -2.466567754745483398e-01 4.716871380805969238e-01 -5.591175556182861328e-01 9.192123413085937500e-01 1.060560107231140137e+00 -1.770998954772949219e+00 -7.121287584304809570e-01 -4.651306867599487305e-01 -8.956785798072814941e-01 1.035625860095024109e-01 5.495887994766235352e-01 1.613444089889526367e+00 2.547134160995483398e+00 8.892962932586669922e-01 -1.284497618675231934e+00 7.342641949653625488e-01 -6.645025610923767090e-01 5.639970898628234863e-01 3.950876183807849884e-03 1.894953250885009766e-01
-1.560556054115295410e+00 2.078930586576461792e-01 5.961280465126037598e-01 1.567761898040771484e-01 -1.326463937759399414e+00 -1.083108901977539062e+00 1.070601120591163635e-01 -1.729396939277648926e+00 6.755118370056152344e-01 -1.122377872467041016e+00 -1.455871224403381348e+00 -7.564873099327087402e-01 -8.984815478324890137e-01 5.639132261276245117e-01 -1.251057744026184082e+00 1.299430608749389648e+00 -8.953694105148315430e-01 1.636120319366455078e+00 -5.987253971397876740e-03 3.308151364326477051e-01 -7.734452486038208008e-01 -1.910970360040664673e-01 -5.420723557472229004e-01 8.237910866737365723e-01 -2.450997233390808105e-01 1.026534382253885269e-02 1.354364633560180664e+00 -7.903944253921508789e-01 2.574223279953002930e-02 3.795794546604156494e-01 4.472926259040832520e-01 1.870630234479904175e-01
-9.748241901397705078e-01 7.820478677749633789e-01 -2.338982373476028442e-01 1.128528118133544922e+00 8.227659761905670166e-02 4.336421191692352295e-01 -6.864625215530395508e-01 9.918738901615142822e-02 5.714879035949707031e-01 4.506032764911651611e-01 -1.512304663658142090e+00 4.474506378173828125e-01 8.141182661056518555e-01 -4.157168865203857422e-01 9.503160715103149414e-01 3.909939527511596680e-01 -9.655665755271911621e-01 -4.794228374958038330e-01 3.794261217117309570e-01 -3.597897589206695557e-01 1.218519091606140137e+00 -1.338655203580856323e-01 9.550068974494934082e-01 -2.545605301856994629e-01 1.911226034164428711e+00 -6.177046895027160645e-01 1.212616682052612305e+00 1.280392050743103027e+00 -1.719612598419189453e+00 5.049878358840942383e-01 -3.814122676849365234e-01 -8.618540763854980469e-01
4.724991619586944580e-01 3.481294214725494385e-01 -2.475734233856201172e+00 -1.450123339891433716e-01 -1.279112458229064941e+00 -9.931881427764892578e-01 -1.607470065355300903e-01 -1.148175835609436035e+00 7.993053197860717773e-01 2.275330305099487305e+00 -1.027302622795104980e+00 -1.062614798545837402e+00 -9.069361090660095215e-01 -5.067815184593200684e-01 -7.136287689208984375e-01 5.328732132911682129e-01 9.047932922840118408e-02 -8.318316936492919922e-01 -2.300215810537338257e-01 -1.773719906806945801e+00 -1.436419785022735596e-01 9.440215826034545898e-01 4.423383772373199463e-01 6.407607793807983398e-01 8.027105927467346191e-01 -1.245469808578491211e+00 -1.698184490203857422e+00 1.826159656047821045e-01 3.631465733051300049e-01 2.398246824741363525e-01 -9.178617596626281738e-01 -4.747213423252105713e-01
-5.839412212371826172e-01 -6.109570860862731934e-01 3.820024728775024414e-01 1.350212574005126953e+00 -5.830030441284179688e-01 -1.801437854766845703e+00 -1.277506351470947266e-01 -5.142119526863098145e-01 1.063459396362304688e+00 -6.666528582572937012e-01 -1.053026616573333740e-01 1.770478039979934692e-01 -1.504607319831848145e+00 1.980367451906204224e-01 -1.423721671104431152e+00 -6.597988307476043701e-02 3.233240246772766113e-01 1.396284222602844238e+00 4.192035198211669922e-01 1.938973188400268555e+00 1.087675333023071289e+00 -3.355704545974731445e-01 -2.938339710235595703e-01 8.233321309089660645e-01 -6.140867471694946289e-01 1.428207904100418091e-01 -1.979490041732788086e+00 3.068021833896636963e-01 2.194967418909072876e-01 6.191710829734802246e-01 3.790351748466491699e-01 -1.269711971282958984e+00
1.976651668548583984e+00 -4.823878705501556396e-01 -5.151961445808410645e-01 4.544917941093444824e-01 6.854479014873504639e-02 9.864587187767028809e-01 6.338521242141723633e-01 -3.966223895549774170e-01 -9.897789955139160156e-01 6.155514344573020935e-02 -2.892116606235504150e-01 1.162404417991638184e-01 5.142774581909179688e-01 2.015435457229614258e+00 -1.233027696609497070e+00 8.109527230262756348e-01 -2.715442180633544922e-01 5.051217675209045410e-01 -8.466953784227371216e-02 -8.634255081415176392e-02 8.346965163946151733e-02 -3.373529911041259766e+00 6.474674940109252930e-01 8.052275180816650391e-01 -7.092819213867187500e-01 -7.308508455753326416e-02 -1.949458956718444824e+00 4.941931664943695068e-01 -2.093048095703125000e+00 -6.277038455009460449e-01 -4.440941810607910156e-01 -9.478541016578674316e-01
-2.094868421554565430e-01 2.299956321716308594e+00 -1.247558116912841797e+00 -5.607830286026000977e-01 -3.117979764938354492e+00 2.148817300796508789e+00 -6.766510009765625000e-01 9.717255830764770508e-01 1.443734765052795410e+00 1.029910564422607422e+00 -2.256736278533935547e+00 -3.580213487148284912e-01 1.056274473667144775e-01 -2.050848960876464844e+00 1.027289271354675293e+00 6.420956850051879883e-01 -1.335134029388427734e+00 8.995553255081176758e-01 -1.390789270401000977e+00 6.061851382255554199e-01 -5.474040508270263672e-01 8.813121914863586426e-02 7.488847970962524414e-01 3.169663250446319580e-01 -8.784548044204711914e-01 -1.570209980010986328e+00 -1.251383185386657715e+00 1.112997889518737793e+00 -6.572198271751403809e-01 4.774318039417266846e-01 1.125553250312805176e-02 -5.148350596427917480e-01
-3.992415368556976318e-01 -3.339980840682983398e-01 1.230581521987915039e+00 1.019313335418701172e+00 -3.833194971084594727e-01 9.356060624122619629e-01 -6.749628782272338867e-01 -1.167768239974975586e+00 -7.228351831436157227e-01 -1.742851883172988892e-01 4.244186580181121826e-01 7.314381003379821777e-01 -7.365159988403320312e-01 2.712071537971496582e-01 -1.645875334739685059e+00 3.672993779182434082e-01 -2.940296232700347900e-01 -9.748905897140502930e-01 1.243156567215919495e-01 1.150917053222656250e+00 1.037095069885253906e+00 -7.053903937339782715e-01 -5.477424860000610352e-01 2.516218721866607666e-01 1.306465566158294678e-01 3.499576151371002197e-01 -4.781450629234313965e-01 7.647660374641418457e-01 1.459026336669921875e+00 5.209080576896667480e-01 4.341443181037902832e-01 -1.367732286453247070e+00
1.068762898445129395e+00 1.142325997352600098e+00 5.462971925735473633e-01 2.812825143337249756e-01 -1.102205634117126465e+00 -3.940348625183105469e-01 1.364677190780639648e+00 7.331088185310363770e-01 1.680659055709838867e-01 2.302660703659057617e+00 -6.048523783683776855e-01 -1.116711020469665527e+00 -7.757563591003417969e-01 -4.002881050109863281e-01 1.446106195449829102e+00 1.532320737838745117e+00 -1.638723313808441162e-01 -6.907334923744201660e-01 -5.644520521163940430e-01 -1.050067186355590820e+00 -1.489325314760208130e-01 -2.716988623142242432e-01 -8.095930218696594238e-01 3.390927910804748535e-01 -1.820780038833618164e+00 -2.026024818420410156e+00 -1.554044485092163086e+00 9.275186657905578613e-01 7.554792165756225586e-01 7.982388734817504883e-01 7.909408807754516602e-01 -1.182540133595466614e-01
-4.179657995700836182e-02 7.399090528488159180e-01 1.098489999771118164e+00 -1.593779027462005615e-01 1.024154186248779297e+00 -9.457960128784179688e-01 -7.631384730339050293e-01 -1.269035339355468750e+00 -4.260410368442535400e-01 -8.956673145294189453e-01 1.448936820030212402e+00 -2.736151695251464844e+00 -4.368945360183715820e-01 6.926242709159851074e-01 -1.000922918319702148e+00 -7.971042990684509277e-01 4.739622771739959717e-01 1.008790373802185059e+00 6.117284297943115234e-01 -2.617242932319641113e-01 4.641092419624328613e-01 -1.187083482742309570e+00 5.631366372108459473e-01 -6.121217608451843262e-01 6.524808406829833984e-01 1.684731841087341309e+00 -2.062456846237182617e+00 -1.965346485376358032e-01 8.984143733978271484e-01 1.240808293223381042e-01 -2.401488423347473145e-01 -1.650844931602478027e+00
1.615406870841979980e+00 1.745065897703170776e-01 1.320058941841125488e+00 5.682685598731040955e-02 -4.431727156043052673e-02 -1.620412170886993408e-01 -5.965177416801452637e-01 -1.067398071289062500e+00 -2.168900251388549805e+00 -5.486326217651367188e-01 -1.218925952911376953e+00 -7.924842238426208496e-01 6.246032714843750000e-01 4.536304175853729248e-01 4.708255529403686523e-01 -7.304551005363464355e-01 -4.525988921523094177e-02 1.266263961791992188e+00 4.855588078498840332e-01 -1.179730415344238281e+00 2.074511528015136719e+00 -7.618281841278076172e-01 1.879719853401184082e+00 4.046501591801643372e-03 5.539230108261108398e-01 -1.923998832702636719e+00 -6.728901863098144531e-01 4.211854338645935059e-01 1.248927950859069824e+00 1.805967688560485840e+00 9.774836301803588867e-01 4.306534230709075928e-01
-4.362421035766601562e-01 8.975064754486083984e-01 -2.944615781307220459e-01 -8.465175628662109375e-01 -5.260002613067626953e-01 1.666086792945861816e+00 -8.593904376029968262e-01 -4.243703559041023254e-02 5.450487136840820312e-01 1.642546296119689941e+00 -9.304009675979614258e-01 9.920912981033325195e-01 -6.952261328697204590e-01 3.635562062263488770e-01 7.397162318229675293e-01 -7.017453312873840332e-01 7.276318073272705078e-01 1.361876577138900757e-01 -9.152562022209167480e-01 -5.616890788078308105e-01 5.850981473922729492e-01 -7.435148954391479492e-01 -1.006463527679443359e+00 -6.758975982666015625e-01 9.754075407981872559e-01 1.172395586967468262e+00 1.049461603164672852e+00 1.189778208732604980e+00 3.550718771293759346e-03 2.576909065246582031e-01 6.906279921531677246e-01 -5.862634181976318359e-01
-3.875276744365692139e-01 5.957583785057067871e-01 -8.050298690795898438e-01 4.066439270973205566e-01 1.022596120834350586e+00 -1.874171495437622070e+00 6.184895038604736328e-01 4.936402738094329834e-01 -1.056839346885681152e+00 -9.345334023237228394e-02 1.704280018806457520e+00 7.943641543388366699e-01 -1.413806825876235962e-01 -6.512703895568847656e-01 -7.076742500066757202e-02 -6.738048791885375977e-01 -1.032962203025817871e+00 -4.100266695022583008e-01 6.393261551856994629e-01 4.730764031410217285e-01 -1.018560528755187988e-01 -2.204020261764526367e+00 -1.354606032371520996e+00 7.527722418308258057e-02 -3.432581424713134766e-01 5.361689925193786621e-01 -5.311517119407653809e-01 -3.506526947021484375e-01 -2.369957685470581055e+00 9.155374169349670410e-01 -9.750862717628479004e-01 6.960049271583557129e-01
-6.150524616241455078e-01 1.950154423713684082e+00 4.413717687129974365e-01 -3.573284149169921875e-01 1.184288114309310913e-01 -5.648846030235290527e-01 -3.667872846126556396e-01 -1.423586905002593994e-01 3.491659462451934814e-01 -1.907312035560607910e+00 7.136482745409011841e-02 1.292597174644470215e+00 7.484113574028015137e-01 -3.607119917869567871e-01 -7.735124230384826660e-01 -1.788049578666687012e+00 8.867778182029724121e-01 -8.641649037599563599e-02 1.888080239295959473e-01 -8.118561506271362305e-01 9.190001487731933594e-01 -7.434135079383850098e-01 -2.466703355312347412e-01 -1.312555432319641113e+00 -1.523362994194030762e-01 1.579210519790649414e+00 1.257894039154052734e+00 -1.240292787551879883e+00 4.053012728691101074e-01 -2.968516014516353607e-02 1.100355237722396851e-01 -6.086204648017883301e-01
9.652112126350402832e-01 9.517545104026794434e-01 -8.958919644355773926e-01 4.279974699020385742e-01 -1.227581620216369629e+00 6.891503334045410156e-01 1.092283010482788086e+00 1.214000344276428223e+00 -1.083852648735046387e+00 7.237597703933715820e-01 5.282496809959411621e-01 2.304208755493164062e+00 -5.639839768409729004e-01 1.115676537156105042e-01 -1.189576927572488785e-02 -7.651943564414978027e-01 -3.726391196250915527e-01 1.007245421409606934e+00 4.061965271830558777e-02 -8.524425327777862549e-02 -1.274740457534790039e+00 4.193581938743591309e-01 -1.267172217369079590e+00 -1.851573884487152100e-01 -5.915701389312744141e-01 -2.983237206935882568e-01 1.359770417213439941e+00 7.159029841423034668e-01 -9.819636940956115723e-01 1.011139154434204102e+00 -2.081286311149597168e-01 -2.355659902095794678e-01
-1.862251013517379761e-01 -7.897578477859497070e-01 2.653200924396514893e-01 8.725429773330688477e-01 -2.105887532234191895e-01 -7.387143969535827637e-01 9.379160404205322266e-01 3.008819818496704102e-01 1.794398903846740723e+00 -5.296992063522338867e-01 -9.682250022888183594e-02 4.251754283905029297e-01 1.686848521232604980e+00 9.325035810470581055e-01 -5.832915306091308594e-01 -7.112063169479370117e-01 -9.495437741279602051e-01 1.266939997673034668e+00 -4.901716113090515137e-01 1.015596508979797363e+00 -4.801560938358306885e-01 1.073083162307739258e+00 -3.366333246231079102e-01 9.911121129989624023e-01 -8.149073719978332520e-01 -1.627863883972167969e+00 5.640409588813781738e-01 9.517229795455932617e-01 -4.364157840609550476e-02 3.511117100715637207e-01 -2.044439077377319336e+00 -1.279487371444702148e+00
1.747333705425262451e-01 -7.271789908409118652e-01 1.294168114662170410e+00 -6.823977231979370117e-01 -4.523788392543792725e-01 -6.835598349571228027e-01 4.679252803325653076e-01 7.128700613975524902e-01 -5.512076616287231445e-01 6.031683087348937988e-01 1.744882702827453613e+00 -1.012800335884094238e-01 -1.089831709861755371e+00 -2.309671163558959961e+00 -2.102594226598739624e-01 2.051225900650024414e+00 -3.013359606266021729e-01 1.712852478027343750e+00 -2.803541421890258789e-01 4.537053704261779785e-01 1.034331202507019043e+00 1.569072902202606201e-01 1.000428348779678345e-01 -9.516391158103942871e-01 8.058614730834960938e-01 2.862500250339508057e-01 4.707329720258712769e-02 -5.829705595970153809e-01 5.615583062171936035e-01 -5.548428297042846680e-01 -2.157942295074462891e+00 1.233115196228027344e+00
-1.449499845504760742e+00 -6.286490559577941895e-01 -1.704923868179321289e+00 -5.583399534225463867e-01 2.062824666500091553e-01 -2.261645905673503876e-02 1.021249771118164062e+00 -1.111238226294517517e-01 3.852306008338928223e-01 -5.232303738594055176e-01 -7.505519986152648926e-01 1.026579737663269043e+00 -6.631455421447753906e-01 1.081380724906921387e+00 -6.839396059513092041e-02 5.265337824821472168e-01 2.611630916595458984e+00 2.447365969419479370e-01 2.917843759059906006e-01 -9.367147684097290039e-01 8.320102691650390625e-01 -5.042077898979187012e-01 1.833680868148803711e+00 1.132026910781860352e+00 2.737248837947845459e-01 -3.235628604888916016e-01 1.172311305999755859e+00 -2.041496753692626953e+00 4.959746897220611572e-01 4.136258661746978760e-01 -3.997021913528442383e-01 -3.298062980175018311e-01
1.588814973831176758e+00 -8.898514509201049805e-01 1.402431249618530273e+00 -1.645742297172546387e+00 -6.868652999401092529e-02 -2.798469066619873047e-01 -6.333833932876586914e-01 9.300532937049865723e-01 -1.081040620803833008e+00 -1.699049472808837891e-01 -4.283532500267028809e-01 8.219696879386901855e-01 7.380731105804443359e-01 1.714851975440979004e+00 -7.896540760993957520e-01 2.967580854892730713e-01 2.310592830181121826e-01 -2.182985067367553711e+00 1.472035527229309082e+00 4.306291639804840088e-01 -9.267680644989013672e-01 -2.290651351213455200e-01 -1.863359510898590088e-01 -3.259378373622894287e-01 -9.191492795944213867e-01 -1.193795204162597656e+00 5.711301565170288086e-01 1.126748442649841309e+00 -7.343285083770751953e-01 3.078162670135498047e-01 -1.316680669784545898e+00 -3.415081501007080078e-01
-4.415666162967681885e-01 1.043047070503234863e+00 -9.656412526965141296e-03 -5.843055248260498047e-01 2.997952997684478760e-01 -9.452000856399536133e-01 9.528455734252929688e-01 7.025834918022155762e-01 -1.602082103490829468e-01 -5.232344269752502441e-01 -4.819409251213073730e-01 -9.108114838600158691e-01 1.807244181632995605e+00 6.577537059783935547e-01 1.746088862419128418e+00 -2.210857629776000977e+00 -1.281089484691619873e-01 -2.245843648910522461e+00 -1.854424923658370972e-01 6.656973361968994141e-01 6.850622892379760742e-01 2.689347043633460999e-02 -7.060423493385314941e-01 -6.243396997451782227e-01 -8.782673478126525879e-01 1.337794423103332520e+00 -6.838775277137756348e-01 4.664717242121696472e-02 -7.506944984197616577e-02 -9.731163084506988525e-02 -9.180274605751037598e-02 -1.092024296522140503e-01
6.312792897224426270e-01 1.127644300460815430e+00 6.688457131385803223e-01 -8.559685945510864258e-01 5.124673843383789062e-01 -3.914086893200874329e-02 8.162647485733032227e-01 5.368021130561828613e-01 9.486801028251647949e-01 9.486625790596008301e-01 2.348234415054321289e+00 -4.370117187500000000e-01 3.163520395755767822e-01 1.713788986206054688e+00 -2.690081000328063965e-01 9.298815727233886719e-01 1.521060943603515625e+00 6.719076633453369141e-01 -4.832399636507034302e-02 3.841130435466766357e-01 -1.571570783853530884e-01 4.798651933670043945e-01 -1.270439028739929199e+00 4.573794603347778320e-01 4.432938694953918457e-01 -1.435914993286132812e+00 -1.016196236014366150e-01 -1.029624223709106445e+00 1.366273760795593262e+00 1.752626597881317139e-01 -1.660015225410461426e+00 -6.309363245964050293e-01
1.399295330047607422e+00 5.029013156890869141e-01 -7.933147549629211426e-01 -1.139339685440063477e+00 2.647045552730560303e-01 -8.248695731163024902e-01 -6.727347970008850098e-01 5.090474486351013184e-01 3.911604881286621094e-01 -1.413140892982482910e+00 -1.856493055820465088e-01 1.050409913063049316e+00 1.441411137580871582e+00 1.145941853523254395e+00 -5.287509784102439880e-02 -1.379680871963500977e+00 2.359705269336700439e-01 -6.164925694465637207e-01 7.162168622016906738e-01 -4.167969524860382080e-01 -1.031306385993957520e+00 8.642213940620422363e-01 -9.244138002395629883e-02 2.844615578651428223e-01 -1.107496558688580990e-03 5.004128217697143555e-01 3.146909773349761963e-01 -2.167055904865264893e-01 -1.927192330360412598e+00 8.196949213743209839e-02 -8.765066266059875488e-01 -4.573902487754821777e-02
-8.890649676322937012e-01 3.790096193552017212e-02 1.474623084068298340e-01 -5.068426132202148438e-01 -3.744734823703765869e-02 7.779693603515625000e-01 1.144658327102661133e+00 4.239738881587982178e-01 -1.099446654319763184e+00 8.984364867210388184e-01 1.505470395088195801e+00 1.855142116546630859e-01 -4.985823333263397217e-01 9.411939978599548340e-01 1.431990861892700195e+00 4.292900860309600830e-01 -5.195466279983520508e-01 3.171714246273040771e-01 3.141250908374786377e-01 -9.397578835487365723e-01 -8.313901424407958984e-01 -6.241885572671890259e-02 9.378299117088317871e-01 -6.041716337203979492e-01 3.602827787399291992e-01 -2.481737881898880005e-01 1.018783211708068848e+00 1.137254714965820312e+00 2.154007703065872192e-01 -7.814433574676513672e-01 -4.543165862560272217e-01 -9.613947868347167969e-01
5.050304532051086426e-01 1.156595349311828613e+00 3.351728916168212891e-01 -1.143223524093627930e+00 -8.589762449264526367e-01 3.280828595161437988e-01 -1.908245235681533813e-01 -1.306941390037536621e+00 -6.545935869216918945e-01 9.781692624092102051e-01 1.550541818141937256e-01 -7.810453772544860840e-01 9.494927525520324707e-01 2.547897025942802429e-02 -1.227835178375244141e+00 -3.425065279006958008e-01 -1.590449333190917969e+00 1.261759519577026367e+00 3.158476650714874268e-01 -1.348253488540649414e+00 -7.153851538896560669e-02 -2.289423197507858276e-01 7.603383064270019531e-01 2.039553225040435791e-01 1.088263869285583496e+00 1.017510741949081421e-01 -2.069559097290039062e-01 2.120480537414550781e+00 -3.397823870182037354e-01 4.539308249950408936e-01 -5.509598851203918457e-01 -5.371066927909851074e-01
3.481903374195098877e-01 -1.272759437561035156e+00 -1.987384200096130371e+00 -6.921961903572082520e-01 -3.192171156406402588e-01 4.693805575370788574e-01 -2.612563073635101318e-01 -1.943894505500793457e+00 -1.305483222007751465e+00 -9.887883663177490234e-01 7.006700634956359863e-01 8.439706563949584961e-01 -1.629257202148437500e+00 6.134158372879028320e-01 -1.399740219116210938e+00 1.391362190246582031e+00 6.778136491775512695e-01 6.769587397575378418e-01 -2.114260435104370117e+00 -1.212871000170707703e-01 6.023690700531005859e-01 -6.947271227836608887e-01 -6.953505426645278931e-02 -2.062780380249023438e+00 1.322876513004302979e-01 1.445459008216857910e+00 -2.215306907892227173e-01 -4.045954048633575439e-01 -9.569084644317626953e-02 3.510405123233795166e-01 -5.898695439100265503e-02 1.208369374275207520e+00
-6.041424274444580078e-01 9.654743075370788574e-01 3.516991138458251953e-01 -5.557985901832580566e-01 -4.462354481220245361e-01 -1.445461869239807129e+00 1.173838376998901367e+00 -8.843752145767211914e-01 -1.036379337310791016e+00 -5.047575235366821289e-01 -1.321956217288970947e-01 -2.228398561477661133e+00 -9.098672308027744293e-03 6.827093362808227539e-01 1.349008798599243164e+00 4.126099944114685059e-01 -1.164935708045959473e+00 -1.515124440193176270e+00 1.554734855890274048e-01 -1.393616795539855957e-01 -8.954371809959411621e-01 1.364913463592529297e+00 -1.131553053855895996e+00 1.755637764930725098e+00 -5.855848193168640137e-01 1.660099029541015625e-01 -1.078499794006347656e+00 -2.768792867660522461e+00 1.040985956788063049e-01 9.879246354103088379e-02 -5.745010375976562500e-01 -3.650331795215606689e-01
-1.632386296987533569e-01 -3.460172414779663086e-01 -4.952905178070068359e-01 -1.534247547388076782e-01 9.131610393524169922e-02 5.791978836059570312e-01 -2.698540687561035156e-01 2.603416144847869873e-01 -1.912678241729736328e+00 -1.641478061676025391e+00 -1.095021724700927734e+00 -5.267559289932250977e-01 -1.815220594406127930e+00 2.520231306552886963e-01 9.906427264213562012e-01 2.673635259270668030e-03 8.366988301277160645e-01 -1.825129747390747070e+00 1.127096772193908691e+00 -1.103382587432861328e+00 -1.130488872528076172e+00 1.395342230796813965e+00 -1.247446537017822266e+00 -1.355357766151428223e+00 -4.701117873191833496e-01 4.981996119022369385e-01 2.341186702251434326e-01 2.475143909454345703e+00 -8.669766783714294434e-01 -1.038813516497612000e-01 3.901719152927398682e-01 -1.879154890775680542e-01
-3.359081745147705078e-01 1.039098739624023438e+00 1.499009490013122559e+00 -1.249532818794250488e+00 5.511944890022277832e-01 -8.972454071044921875e-01 2.701414749026298523e-02 1.392433941364288330e-01 -1.167777299880981445e+00 -8.944771885871887207e-01 -4.771835803985595703e-01 9.170228242874145508e-01 -1.993108034133911133e+00 1.817584156990051270e+00 -9.328477978706359863e-01 6.583427786827087402e-01 6.260788440704345703e-01 -3.316833078861236572e-01 2.356033474206924438e-01 -1.086137667298316956e-01 -4.741720855236053467e-02 -5.218596458435058594e-01 9.802600741386413574e-01 -1.014028429985046387e+00 -2.876437306404113770e-01 2.455899715423583984e-01 6.003160476684570312e-01 4.157769978046417236e-01 -4.221835732460021973e-01 3.944644331932067871e-01 -1.299494385719299316e+00 -1.194454431533813477e-01
1.230259418487548828e+00 2.482497692108154297e+00 -6.474567651748657227e-01 8.414556384086608887e-01 2.210619598627090454e-01 1.433208346366882324e+00 1.291774272918701172e+00 5.830463767051696777e-01 1.059403896331787109e+00 7.583369612693786621e-01 -1.197661519050598145e+00 8.366078734397888184e-01 8.203791454434394836e-03 3.546758294105529785e-01 9.573141932487487793e-01 6.266307234764099121e-01 -5.162362754344940186e-02 1.102036595344543457e+00 -1.539457321166992188e+00 1.967777460813522339e-01 2.181724071502685547e+00 1.717174202203750610e-01 1.212864875793457031e+00 4.702252447605133057e-01 -2.720955014228820801e-01 1.357782781124114990e-01 -1.384077906608581543e+00 6.339311599731445312e-01 4.620803296566009521e-01 3.839780390262603760e-01 1.016762733459472656e+00 -1.472913503646850586e+00
-2.542590200901031494e-01 6.171616911888122559e-01 -3.592464923858642578e-01 4.939858615398406982e-02 -1.833593964576721191e+00 2.809144020080566406e+00 7.685980796813964844e-01 -7.020418047904968262e-01 4.432175159454345703e-01 -1.980504579842090607e-02 -1.000309228897094727e+00 2.210548222064971924e-01 -2.432726174592971802e-01 -5.349203348159790039e-01 5.815317630767822266e-01 4.803017973899841309e-01 8.813596963882446289e-01 6.876714229583740234e-01 -1.267562031745910645e+00 9.331448078155517578e-01 1.548812389373779297e+00 1.629213571548461914e+00 -2.005512475967407227e+00 1.851511359214782715e+00 -8.787254691123962402e-01 -7.105754017829895020e-01 -3.654716163873672485e-02 1.264594912528991699e+00 9.726189970970153809e-01 -3.398258388042449951e-01 -2.442419767379760742e+00 7.509707212448120117e-01
6.939927339553833008e-01 1.216909941285848618e-02 -1.329165220260620117e+00 7.860764116048812866e-02 -8.248860239982604980e-01 4.979570806026458740e-01 -6.780295819044113159e-02 -5.863545536994934082e-01 1.146006703376770020e+00 -1.623612046241760254e+00 -1.925299286842346191e+00 1.859474480152130127e-01 -1.311950683593750000e+00 -4.772287905216217041e-01 -1.454695701599121094e+00 -8.268166184425354004e-01 1.853586435317993164e+00 1.780153155326843262e+00 2.125187367200851440e-01 -1.118085682392120361e-01 1.477843523025512695e+00 -9.073935151100158691e-01 4.443223774433135986e-01 -1.631016135215759277e+00 1.115758061408996582e+00 -3.311914801597595215e-01 1.101993441581726074e+00 3.912269175052642822e-01 1.868618875741958618e-01 -1.013018131256103516e+00 -2.558099985122680664e+00 -2.036474466323852539e+00
1.555482387542724609e+00 1.688293814659118652e+00 -2.963955402374267578e-01 2.917214930057525635e-01 -4.975642859935760498e-01 1.252002716064453125e+00 1.767222642898559570e+00 1.763885736465454102e+00 -7.124454975128173828e-01 -1.310000777244567871e+00 -1.863900065422058105e+00 -9.937368631362915039e-01 1.581266403198242188e+00 5.701329708099365234e-01 9.713023900985717773e-01 2.446659952402114868e-01 -3.360983133316040039e-01 8.348457813262939453e-01 -4.715275019407272339e-02 6.427985429763793945e-01 6.260457634925842285e-01 8.842827379703521729e-02 -7.685002684593200684e-01 6.201401948928833008e-01 2.454932220280170441e-02 -9.625830054283142090e-01 -1.347559571266174316e+00 -1.821780681610107422e+00 2.486070841550827026e-01 -6.767621636390686035e-01 -9.546927213668823242e-01 -5.986593365669250488e-01
4.571481943130493164e-01 1.140045896172523499e-01 4.306007623672485352e-01 1.262884616851806641e+00 -1.295146584510803223e+00 -3.510434329509735107e-01 5.757874250411987305e-01 1.669105529785156250e+00 1.167277842760086060e-01 1.512557387351989746e+00 5.188888870179653168e-03 -4.776385426521301270e-01 8.934426903724670410e-01 7.667081356048583984e-01 7.417039275169372559e-01 -1.015235930681228638e-01 -1.087721347808837891e+00 3.726762235164642334e-01 -2.251002788543701172e-01 1.863801628351211548e-01 -1.866353452205657959e-01 1.891702175140380859e+00 -1.523849844932556152e+00 8.706791400909423828e-01 -1.428341984748840332e+00 1.133655071258544922e+00 -1.316148042678833008e+00 -2.988777458667755127e-01 4.817773997783660889e-01 -5.945171713829040527e-01 -4.870573282241821289e-01 6.642892956733703613e-01
1.666909605264663696e-01 -5.842552185058593750e-01 5.631783008575439453e-01 -1.423523187637329102e+00 1.429904103279113770e+00 -2.282345294952392578e+00 1.886948585510253906e+00 9.196014404296875000e-01 -2.391723394393920898e-01 -2.409867763519287109e+00 -1.964206814765930176e+00 -3.597877621650695801e-01 4.206339716911315918e-01 -3.056353330612182617e-01 -2.137085944414138794e-01 -1.344511032104492188e+00 6.971870064735412598e-01 -9.064322710037231445e-01 2.181850910186767578e+00 -2.694527506828308105e-01 -5.711305737495422363e-01 1.429041624069213867e+00 -1.275857686996459961e+00 5.375974178314208984e-01 4.133830070495605469e-01 -7.608947753906250000e-01 4.522882997989654541e-01 -4.722003042697906494e-01 1.186460971832275391e+00 1.925638914108276367e-01 1.741218686103820801e+00 -1.436105966567993164e+00
-4.975440204143524170e-01 -5.719580054283142090e-01 1.230293586850166321e-01 2.251168191432952881e-01 -1.778703570365905762e+00 8.567083477973937988e-01 -1.230040907859802246e+00 -1.304168254137039185e-01 -1.019159555435180664e+00 1.074232935905456543e+00 -7.750485092401504517e-02 7.790028452873229980e-01 -1.918771266937255859e+00 -5.450003147125244141e-01 1.767058968544006348e+00 2.270659923553466797e+00 -1.685650825500488281e+00 1.261682271957397461e+00 -1.299415230751037598e-01 -1.731789350509643555e+00 3.043844997882843018e-01 4.484559595584869385e-01 -1.024015545845031738e+00 8.993405103683471680e-01 -7.569836378097534180e-01 -5.013219714164733887e-01 -9.741137623786926270e-01 4.950864911079406738e-01 -1.558534264564514160e+00 -4.671395123004913330e-01 -1.606692194938659668e+00 3.488061726093292236e-01
1.466517686843872070e+00 1.099842786788940430e+00 1.163933873176574707e-01 5.179017186164855957e-01 1.301650166511535645e+00 2.224947661161422729e-01 -4.308044314384460449e-01 6.308134198188781738e-01 6.080532670021057129e-01 -1.431253075599670410e+00 3.244581073522567749e-02 -4.767825603485107422e-01 6.176485419273376465e-01 9.579640626907348633e-01 2.012218981981277466e-01 4.865339398384094238e-01 -9.899185895919799805e-01 5.668148398399353027e-01 -1.163965821266174316e+00 6.481264233589172363e-01 -8.037426471710205078e-01 -7.281923890113830566e-01 6.248990446329116821e-02 -5.608183145523071289e-01 -9.468627572059631348e-01 -2.011891603469848633e+00 -9.850500226020812988e-01 5.187700986862182617e-01 3.958322703838348389e-01 2.098595201969146729e-01 -1.420845031738281250e+00 1.163387775421142578e+00
-1.093642234802246094e+00 1.521829068660736084e-01 1.280562281608581543e+00 7.405542731285095215e-01 4.316892623901367188e-01 1.719786047935485840e+00 8.554805070161819458e-02 -5.987523794174194336e-01 -8.034833669662475586e-01 -7.133703827857971191e-01 1.117957592010498047e+00 -1.120442867279052734e+00 1.136030554771423340e+00 -3.293517529964447021e-01 -9.930938482284545898e-01 -1.157294273376464844e+00 4.716339111328125000e-01 -7.013236880302429199e-01 -1.027044653892517090e+00 4.724770188331604004e-01 9.443923830986022949e-01 6.645675301551818848e-01 -4.300790131092071533e-01 -1.536152511835098267e-02 -7.586719393730163574e-01 -1.354087829589843750e+00 5.047793388366699219e-01 -9.431684613227844238e-01 -1.410768032073974609e-01 -1.167306661605834961e+00 3.219170272350311279e-01 1.311292171478271484e+00
2.956107556819915771e-01 -1.962986439466476440e-01 3.670594096183776855e-01 -2.044928789138793945e+00 1.209754467010498047e+00 -1.535623550415039062e+00 8.176681995391845703e-01 -5.011267662048339844e-01 -9.748632311820983887e-01 -1.023026347160339355e+00 7.569017410278320312e-01 -1.873924851417541504e+00 -2.412017583847045898e-01 1.355114698410034180e+00 -1.738600730895996094e+00 1.015267372131347656e+00 1.828853935003280640e-01 -3.085582256317138672e-01 -8.900158852338790894e-02 8.512274622917175293e-01 -1.341101527214050293e+00 9.156795740127563477e-01 7.775331139564514160e-01 -6.370930671691894531e-01 1.256705164909362793e+00 1.147443413734436035e+00 -1.175641775131225586e+00 -6.158428788185119629e-01 -9.958482384681701660e-01 2.492478042840957642e-01 1.870921254158020020e+00 -4.118541181087493896e-01
1.069670200347900391e+00 -1.032175540924072266e+00 1.440717577934265137e+00 1.110085248947143555e+00 -2.813682258129119873e-01 -7.119631767272949219e-01 -2.560194730758666992e+00 -1.192910671234130859e+00 3.380493819713592529e-01 -1.728510260581970215e-01 -1.212192296981811523e+00 1.285945653915405273e+00 -6.443824768066406250e-01 1.017946377396583557e-01 1.015386819839477539e+00 -5.699669718742370605e-01 3.402120769023895264e-01 9.329486489295959473e-01 -1.658540248870849609e+00 -2.662698984146118164e+00 1.019789338111877441e+00 3.739857375621795654e-01 -7.357897162437438965e-01 -6.269936263561248779e-02 1.547827124595642090e-01 -1.528097867965698242e+00 2.162966430187225342e-01 6.886278986930847168e-01 -6.055170893669128418e-01 -3.158890008926391602e-01 2.948791384696960449e-01 -4.593098163604736328e-01
-6.877093315124511719e-01 -1.063122749328613281e+00 -8.732295827940106392e-05 -1.210043787956237793e+00 1.591873019933700562e-01 -9.964756965637207031e-01 7.356391549110412598e-01 -1.148684263229370117e+00 1.289631485939025879e+00 -2.213433265686035156e+00 4.837124645709991455e-01 1.139608383178710938e+00 -8.324548602104187012e-01 -1.533265948295593262e+00 2.062961459159851074e-01 1.202705025672912598e+00 -7.208833843469619751e-02 6.475015543401241302e-03 -4.382736086845397949e-01 -7.226018905639648438e-01 -8.479940891265869141e-01 -2.139705419540405273e+00 1.282761335372924805e+00 -6.707011461257934570e-01 -1.269924920052289963e-02 5.062835216522216797e-01 2.032985448837280273e+00 -5.547031760215759277e-01 -1.024944663047790527e+00 -1.568382620811462402e+00 -8.113967180252075195e-01 -1.419873237609863281e-01
7.143099308013916016e-01 1.108849763870239258e+00 2.375538825988769531e+00 -8.216948509216308594e-01 -4.576273858547210693e-01 2.386104583740234375e+00 -1.501214653253555298e-01 1.101262807846069336e+00 6.333547830581665039e-01 1.359425783157348633e+00 -9.642959833145141602e-01 4.809395223855972290e-02 3.083201348781585693e-01 1.276822209358215332e+00 8.414319157600402832e-01 -1.920423388481140137e+00 -1.029307097196578979e-01 1.183943748474121094e+00 5.155206918716430664e-01 2.115584164857864380e-01 6.414178609848022461e-01 7.151411771774291992e-01 1.022231727838516235e-01 2.733594775199890137e-01 5.021553039550781250e-01 -9.458828568458557129e-01 3.224493563175201416e-01 -8.478184342384338379e-01 -7.452740073204040527e-01 8.424121141433715820e-01 -7.027000188827514648e-02 2.360271930694580078e+00
-1.697135865688323975e-01 -7.077621221542358398e-01 -1.180604472756385803e-01 1.011166453361511230e+00 7.843024730682373047e-01 3.982047736644744873e-01 -1.100832819938659668e+00 2.392554044723510742e+00 -1.179791450500488281e+00 -9.403964877128601074e-01 -2.453000783920288086e+00 -2.210548639297485352e+00 -7.239990234375000000e-01 -2.004822254180908203e+00 -7.336382269859313965e-01 2.612491846084594727e-01 -7.605678439140319824e-01 -1.184136152267456055e+00 7.593521475791931152e-01 -4.192407727241516113e-01 4.991692304611206055e-01 -3.327329158782958984e-01 -6.562913656234741211e-01 -7.752317786216735840e-01 3.980521559715270996e-01 -1.434060335159301758e+00 -8.604441881179809570e-01 -6.235137581825256348e-01 -5.670806765556335449e-01 -5.897651314735412598e-01 1.079635977745056152e+00 1.704899430274963379e+00
3.850190639495849609e-01 1.892828345298767090e+00 -5.205103158950805664e-01 6.558107137680053711e-01 -2.058183431625366211e+00 -2.378621250391006470e-01 2.445518970489501953e+00 1.851219236850738525e-01 -1.347539186477661133e+00 -5.184924006462097168e-01 4.635939002037048340e-01 2.265837490558624268e-01 -5.693175792694091797e-01 -2.090278565883636475e-01 -2.241107970476150513e-01 -5.543849244713783264e-02 -1.722380399703979492e+00 3.169713020324707031e-01 6.860480308532714844e-01 3.343603312969207764e-01 8.421688675880432129e-01 2.633652985095977783e-01 -1.820352315902709961e+00 -2.799105942249298096e-01 7.382866740226745605e-01 -1.120493173599243164e+00 9.115602374076843262e-01 -6.521996855735778809e-01 1.017227292060852051e+00 -5.995879173278808594e-01 4.490071535110473633e-01 2.537649273872375488e-01
2.529393183067440987e-03 8.993190526962280273e-01 2.133624702692031860e-01 -1.062311530113220215e+00 9.421526789665222168e-01 2.583676099777221680e+00 -6.488166004419326782e-02 2.779831364750862122e-02 -1.861315518617630005e-01 -1.522409468889236450e-01 -5.510191917419433594e-01 6.408574581146240234e-01 -4.040568172931671143e-01 -2.588288784027099609e+00 -8.439054489135742188e-01 -1.203814446926116943e-01 -1.568680286407470703e+00 1.004227161407470703e+00 1.229161620140075684e+00 -6.576671004295349121e-01 9.783827066421508789e-01 2.618312835693359375e+00 2.698393166065216064e-01 2.609193883836269379e-02 -7.315394878387451172e-01 1.709949254989624023e+00 4.548077937215566635e-03 -3.348732292652130127e-01 -1.035265922546386719e+00 1.218935012817382812e+00 1.053205370903015137e+00 3.749715983867645264e-01
2.152558565139770508e-01 -4.432424157857894897e-02 4.159106016159057617e-01 4.227330088615417480e-01 3.911489248275756836e-02 -1.513565778732299805e+00 7.041445970535278320e-01 1.478324681520462036e-01 1.069719791412353516e+00 7.837676405906677246e-01 7.133517861366271973e-01 -2.006974071264266968e-01 -7.377315163612365723e-01 5.339916348457336426e-01 1.705922842025756836e+00 -5.128333568572998047e-01 7.962703704833984375e-02 4.453891217708587646e-01 2.817003726959228516e-01 7.695251107215881348e-01 -8.626009225845336914e-01 -8.175321668386459351e-02 -1.378937005996704102e+00 9.563976526260375977e-01 1.598120450973510742e+00 -1.078021049499511719e+00 -5.829131007194519043e-01 -4.260711669921875000e-01 -1.154670119285583496e+00 5.010894536972045898e-01 -6.500712037086486816e-01 -3.480065166950225830e-01
5.533295273780822754e-01 -1.633634686470031738e+00 -1.523978948593139648e+00 -4.625968337059020996e-01 1.689011216163635254e+00 -1.453922033309936523e+00 1.576327562332153320e+00 4.055156111717224121e-01 1.003330230712890625e+00 2.321417815983295441e-02 4.969834908843040466e-02 -4.234586060047149658e-01 -3.298439681529998779e-01 -1.028455853462219238e+00 4.329464435577392578e-01 6.254790425300598145e-01 1.007995843887329102e+00 3.217300772666931152e-01 -4.943031370639801025e-01 -5.252687931060791016e-01 -1.844048976898193359e+00 -2.670994520187377930e+00 1.538653731346130371e+00 8.913179039955139160e-01 1.648923039436340332e+00 -1.059107661247253418e+00 -2.101850509643554688e+00 1.186114311218261719e+00 4.094502925872802734e-01 2.132559061050415039e+00 -1.950784176588058472e-01 -3.242526650428771973e-01
-1.736455082893371582e+00 -6.970927715301513672e-01 -1.559291243553161621e+00 1.329699516296386719e+00 9.696502983570098877e-02 -6.820449233055114746e-01 -1.906994730234146118e-01 -1.019592404365539551e+00 8.373470604419708252e-02 -3.232267498970031738e-01 -3.957149088382720947e-01 -7.403948307037353516e-01 -1.648631811141967773e+00 -7.938143014907836914e-01 -7.367453575134277344e-01 -1.684395223855972290e-01 -5.335537791252136230e-01 7.349642366170883179e-02 -1.829712748527526855e+00 6.971613764762878418e-01 2.345109879970550537e-01 -1.782084584236145020e+00 5.620647072792053223e-01 1.844058513641357422e+00 -1.489751696586608887e+00 2.128384351730346680e+00 1.698456704616546631e-01 2.935728728771209717e-01 6.781911104917526245e-02 6.627854704856872559e-01 2.429462820291519165e-01 3.038149476051330566e-01
-7.521114349365234375e-01 -9.578537940979003906e-01 -3.560996651649475098e-01 3.876373767852783203e-01 3.938807249069213867e-01 -1.506487488746643066e+00 -1.105947613716125488e+00 1.191156432032585144e-01 -5.171535015106201172e-01 7.525300979614257812e-01 -1.953715085983276367e-01 1.108920127153396606e-01 -8.991151452064514160e-01 -1.174073219299316406e+00 -3.042058944702148438e-01 -2.676944136619567871e-01 1.343571424484252930e+00 -1.144372105598449707e+00 -1.548238039016723633e+00 -7.142612934112548828e-01 -1.594158768653869629e+00 4.278760552406311035e-01 4.702207744121551514e-01 5.232279896736145020e-01 7.228912711143493652e-01 -1.705057263374328613e+00 8.744081258773803711e-01 -9.795631170272827148e-01 1.114260315895080566e+00 -4.162088334560394287e-01 -3.205345571041107178e-01 8.945454955101013184e-01
1.002277016639709473e+00 -8.176360130310058594e-01 -1.811820715665817261e-01 8.149856328964233398e-01 -3.822034597396850586e-01 -3.242380619049072266e-01 1.819044113159179688e+00 6.269929409027099609e-01 2.281972467899322510e-01 1.960876584053039551e-02 -1.274148821830749512e+00 -5.494539141654968262e-01 -1.347337484359741211e+00 5.025664567947387695e-01 -5.695340633392333984e-01 -7.998372912406921387e-01 -4.299926757812500000e-01 -5.620871782302856445e-01 -1.124456245452165604e-02 -4.927313625812530518e-01 -2.255914211273193359e+00 5.279200673103332520e-01 -1.090962886810302734e+00 -2.752573788166046143e-01 -8.663259148597717285e-01 -4.254927337169647217e-01 -6.109316945075988770e-01 -1.127706289291381836e+00 -1.237703859806060791e-01 3.717861473560333252e-01 6.759423017501831055e-01 -1.491780877113342285e-01
5.953793525695800781e-01 -3.235172033309936523e-01 -1.100167989730834961e+00 -2.950283586978912354e-01 -4.482841491699218750e-01 1.696886062622070312e+00 4.426435530185699463e-01 7.049591094255447388e-02 6.441118717193603516e-01 8.853100240230560303e-02 -1.867629885673522949e+00 9.111081063747406006e-02 5.758003592491149902e-01 1.076584815979003906e+00 1.502219557762145996e+00 -1.463633477687835693e-01 -4.546864926815032959e-01 3.960887491703033447e-01 8.235303163528442383e-01 8.656240105628967285e-01 -3.769908100366592407e-02 1.029623985290527344e+00 -9.803875088691711426e-01 3.594084680080413818e-01 1.251396179199218750e+00 1.985663652420043945e+00 1.190823554992675781e+00 -7.221923023462295532e-02 -1.153419259935617447e-02 1.142410635948181152e+00 -1.596916794776916504e+00 1.764589101076126099e-01
1.241047143936157227e+00 4.246705472469329834e-01 -5.463738441467285156e-01 1.768932044506072998e-01 -1.714141964912414551e+00 -6.372164487838745117e-01 -9.538563489913940430e-01 8.404406309127807617e-01 6.127763539552688599e-02 -1.521322369575500488e+00 -3.480536043643951416e-01 -1.778576225042343140e-01 2.645329236984252930e-01 -1.651379227638244629e+00 1.732128739356994629e+00 7.169647812843322754e-01 1.843636393547058105e+00 -1.802891790866851807e-01 -3.715121448040008545e-01 2.563810348510742188e-01 -1.562334418296813965e+00 -3.448073267936706543e-01 1.055672883987426758e+00 6.827915310859680176e-01 4.753326773643493652e-01 1.046098351478576660e+00 -3.110930621623992920e-01 -5.774084925651550293e-01 1.415751695632934570e+00 4.637636542320251465e-01 2.379095107316970825e-01 1.103347539901733398e+00
-1.358678579330444336e+00 1.561064124107360840e+00 -5.690805315971374512e-01 1.587155461311340332e+00 -1.000582337379455566e+00 1.218379855155944824e+00 8.254394531250000000e-01 -9.933186769485473633e-01 1.804369449615478516e+00 -1.586294025182723999e-01 -9.591957330703735352e-01 -3.980122506618499756e-01 -1.740603893995285034e-02 1.291692852973937988e+00 -1.068162560462951660e+00 -1.292872905731201172e+00 -2.867765128612518311e-01 -4.618861377239227295e-01 7.684425711631774902e-01 2.301637679338455200e-01 7.843674421310424805e-01 -4.474695920944213867e-01 -8.141416311264038086e-01 -1.000136137008666992e+00 -1.096219658851623535e+00 7.483474612236022949e-01 -2.575467228889465332e-01 -1.326353669166564941e+00 -1.601312637329101562e+00 2.495904445648193359e+00 4.526221752166748047e-01 -4.861351549625396729e-01
2.247534543275833130e-01 -4.276174306869506836e-01 -7.354450821876525879e-01 1.995589733123779297e+00 -2.038617134094238281e-01 1.291736841201782227e+00 -3.221766948699951172e-01 1.338464140892028809e+00 1.458120226860046387e+00 -8.637825846672058105e-01 8.540424108505249023e-01 -5.569531917572021484e-01 -7.509181499481201172e-01 -1.004471421241760254e+00 3.569093346595764160e-01 -7.939294576644897461e-01 -1.451734781265258789e+00 -1.199355840682983398e+00 -8.394362330436706543e-01 1.158728480339050293e+00 1.412458539009094238e+00 -2.370371967554092407e-01 -1.264298796653747559e+00 -1.776046901941299438e-01 -8.951134085655212402e-01 -1.398948788642883301e+00 1.545732617378234863e-01 1.219358325004577637e+00 1.587745696306228638e-01 -6.205872893333435059e-01 9.766312837600708008e-01 4.199634790420532227e-01
-4.717285335063934326e-01 -1.147948503494262695e+00 -8.413070440292358398e-01 4.194596707820892334e-01 5.049027204513549805e-01 -1.273236632347106934e+00 -7.640134692192077637e-01 6.880334615707397461e-01 -6.168426275253295898e-01 2.288652658462524414e-01 -4.486567080020904541e-01 -1.359186291694641113e+00 8.277572989463806152e-01 -4.365595877170562744e-01 8.782679438591003418e-01 -1.966526389122009277e+00 -8.550175428390502930e-01 -1.416904181241989136e-01 2.283616781234741211e+00 -1.035294890403747559e+00 -4.869564175605773926e-01 1.276574611663818359e+00 -6.794627308845520020e-01 8.837677240371704102e-01 -7.505446672439575195e-01 2.087166011333465576e-01 4.689355194568634033e-01 -1.058980226516723633e+00 2.549663484096527100e-01 -1.933924674987792969e+00 4.366353154182434082e-02 -8.914031982421875000e-01
-7.045395374298095703e-01 3.976316452026367188e-01 5.074605345726013184e-01 -1.997274905443191528e-01 -7.797946333885192871e-01 1.556912064552307129e+00 7.703732252120971680e-01 -3.533140122890472412e-01 3.346469104290008545e-01 1.277550458908081055e+00 -3.498679697513580322e-01 -1.437613487243652344e+00 7.772136330604553223e-01 -1.672419309616088867e+00 1.047569513320922852e+00 1.341097895056009293e-02 -6.643285155296325684e-01 -2.140485048294067383e-01 -7.264054417610168457e-01 -6.351994723081588745e-02 1.220304489135742188e+00 5.648490190505981445e-01 -4.615618884563446045e-01 -6.796638667583465576e-02 -2.848601937294006348e-01 -4.802916646003723145e-01 3.020326793193817139e-01 2.931227982044219971e-01 -8.131352663040161133e-01 5.387364029884338379e-01 -1.364570260047912598e-01 -1.412314325571060181e-01
-1.070981502532958984e+00 -1.202406525611877441e+00 1.906130313873291016e-01 4.435389935970306396e-01 -1.524497151374816895e+00 1.839888334274291992e+00 -6.121060848236083984e-01 -9.078434705734252930e-01 -8.295626044273376465e-01 -5.311181396245956421e-02 5.491461157798767090e-01 -1.548666715621948242e+00 4.749397635459899902e-01 -2.100915193557739258e+00 8.417627960443496704e-02 -4.228791296482086182e-01 1.385915279388427734e-01 1.564121432602405548e-02 1.678744554519653320e+00 1.206868767738342285e+00 6.023081541061401367e-01 -5.036914348602294922e-01 -4.805230349302291870e-02 -2.190965861082077026e-01 -1.116545081138610840e+00 9.906854033470153809e-01 1.856849640607833862e-01 -9.344757348299026489e-02 -1.137983947992324829e-01 -1.263585567474365234e+00 7.119158655405044556e-02 1.330263316631317139e-01
8.341509699821472168e-01 -3.392868041992187500e-01 6.899744868278503418e-01 4.756921827793121338e-01 1.012593984603881836e+00 -1.087047576904296875e+00 -3.657244741916656494e-01 3.587059676647186279e-02 -1.808400869369506836e+00 1.404030203819274902e+00 9.920933842658996582e-01 -3.791771531105041504e-01 1.226164579391479492e+00 -1.643403530120849609e+00 -2.134021520614624023e+00 1.235872283577919006e-01 -1.567832231521606445e+00 -1.579443961381912231e-01 6.193708777427673340e-01 -6.389857083559036255e-02 -1.311493754386901855e+00 -2.462231069803237915e-01 -1.520644068717956543e+00 -2.470296859741210938e+00 1.034492373466491699e+00 -5.640318989753723145e-01 1.904295682907104492e+00 -1.630469083786010742e+00 -1.649989247322082520e+00 9.007005691528320312e-01 -5.578472018241882324e-01 2.096102237701416016e-01
1.511371135711669922e-01 6.006976962089538574e-01 -1.469950079917907715e+00 2.795292735099792480e-01 1.812183856964111328e+00 -6.281027793884277344e-01 9.557690620422363281e-01 2.424584925174713135e-01 -6.060816645622253418e-01 -4.327296018600463867e-01 -5.580907464027404785e-01 -4.491667747497558594e-01 1.432389974594116211e+00 3.435288965702056885e-01 2.920715510845184326e-01 3.256155177950859070e-02 -1.171078801155090332e+00 7.402783259749412537e-03 2.445879578590393066e-01 1.983967781066894531e+00 -5.866211056709289551e-01 -1.525671124458312988e+00 1.373778820037841797e+00 1.918441057205200195e+00 7.457125782966613770e-01 -6.779391169548034668e-01 -3.324193656444549561e-01 2.279207229614257812e+00 1.750076055526733398e+00 -7.923292517662048340e-01 7.803931832313537598e-01 -6.061446070671081543e-01
1.388001888990402222e-01 1.759518086910247803e-01 -1.380113482475280762e+00 3.220087885856628418e-01 -1.723843336105346680e+00 -7.175655961036682129e-01 -1.268308997154235840e+00 -1.559292316436767578e+00 7.871556282043457031e-01 1.926102280616760254e+00 -4.512422978878021240e-01 -2.000149726867675781e+00 1.645949006080627441e+00 5.546516180038452148e-01 -9.286674857139587402e-01 -3.097612857818603516e-01 8.356435894966125488e-01 -1.004866123199462891e+00 -2.777932882308959961e-01 1.015573978424072266e+00 1.600155949592590332e+00 -7.832897901535034180e-01 7.543615698814392090e-01 9.012095928192138672e-01 -1.333562135696411133e-01 -1.597099006175994873e-01 6.663692593574523926e-01 -3.907017111778259277e-01 -2.202183961868286133e+00 -4.976941049098968506e-01 -1.859278678894042969e+00 1.252342313528060913e-01
-1.593866199254989624e-01 -8.130578398704528809e-01 -1.392266273498535156e+00 -6.347174756228923798e-03 -1.219342947006225586e+00 -2.310765236616134644e-01 -1.502257823944091797e+00 -1.293161511421203613e-01 2.180710077285766602e+00 -1.581966876983642578e-01 -8.665447235107421875e-01 7.855097949504852295e-02 1.539032101631164551e+00 3.725618720054626465e-01 -1.079359412193298340e+00 -2.343484878540039062e+00 -3.960753679275512695e-01 -4.742308259010314941e-01 3.573696315288543701e-01 1.139479517936706543e+00 3.389931321144104004e-01 7.670910954475402832e-01 2.796216249465942383e+00 -2.312644243240356445e+00 3.830380439758300781e-01 4.567721188068389893e-01 -5.467905402183532715e-01 -5.618651211261749268e-02 -7.846843004226684570e-01 1.036402344703674316e+00 -7.978954911231994629e-02 2.080860435962677002e-01
-5.028166770935058594e-01 -8.246811628341674805e-01 -5.497428774833679199e-01 1.190886199474334717e-01 -2.209089547395706177e-01 -1.772010922431945801e+00 -1.317722082138061523e+00 3.103383183479309082e-01 3.982987403869628906e-01 -1.157551884651184082e+00 1.568405270576477051e+00 -5.350024104118347168e-01 -9.598479419946670532e-02 -4.405956342816352844e-02 -6.031793951988220215e-01 -1.249072074890136719e+00 1.274716138839721680e+00 -3.848939538002014160e-01 1.029899641871452332e-01 6.663171052932739258e-01 7.299581170082092285e-01 1.126788258552551270e+00 -1.611228734254837036e-01 -1.624848365783691406e+00 8.428480029106140137e-01 4.019800126552581787e-01 1.422767043113708496e+00 1.216191053390502930e+00 -4.386060237884521484e-01 3.256351947784423828e-01 -5.053605437278747559e-01 -1.359105587005615234e+00
2.223287105560302734e+00 -3.511421680450439453e-01 2.139280796051025391e+00 -8.699119687080383301e-01 -1.645126938819885254e-02 2.249154329299926758e+00 -1.438633352518081665e-01 -9.732978940010070801e-01 7.729956507682800293e-01 -1.468926787376403809e+00 4.133276641368865967e-01 6.464647054672241211e-01 3.511089980602264404e-01 -1.341971009969711304e-01 1.450241804122924805e-01 -1.642379641532897949e+00 1.285258889198303223e+00 -1.713226735591888428e-01 -1.840595841407775879e+00 1.085128068923950195e+00 1.226219907402992249e-01 1.315793514251708984e+00 8.934159874916076660e-01 2.348347008228302002e-01 1.426302909851074219e+00 -1.091468214988708496e+00 -1.246257543563842773e+00 7.104727029800415039e-01 1.803804278373718262e+00 5.338339805603027344e-01 4.212297201156616211e-01 -8.127900362014770508e-01
7.986415028572082520e-01 2.137673944234848022e-01 1.397330522537231445e+00 9.121035337448120117e-01 1.053777933120727539e+00 6.570736169815063477e-01 2.084610462188720703e+00 -3.069084584712982178e-01 -2.729834318161010742e-01 -4.398085922002792358e-02 -1.993453055620193481e-01 1.131391525268554688e+00 8.148617148399353027e-01 6.537433266639709473e-01 -1.516817927360534668e+00 1.741619348526000977e+00 8.211855888366699219e-01 2.502255141735076904e-01 6.955979466438293457e-01 -6.427314877510070801e-01 -1.032263994216918945e+00 -1.457653164863586426e+00 2.091331779956817627e-01 -6.591009907424449921e-03 1.846644431352615356e-01 -1.996770143508911133e+00 1.633545309305191040e-01 -1.003913998603820801e+00 1.708537697792053223e+00 -6.636438369750976562e-01 4.886877238750457764e-01 -1.143499836325645447e-01
-8.045336604118347168e-01 9.807865321636199951e-02 9.314203858375549316e-01 -1.311537861824035645e+00 1.126433014869689941e-01 -2.785067856311798096e-01 -3.743075132369995117e-01 -1.298313140869140625e+00 -9.706660509109497070e-01 -3.016601204872131348e-01 1.811630427837371826e-01 -5.141130089759826660e-01 -9.423159956932067871e-01 2.083701342344284058e-01 9.886727929115295410e-01 -1.726515293121337891e+00 9.980209469795227051e-01 1.324853062629699707e+00 -1.432752132415771484e+00 1.745401144027709961e+00 2.788273990154266357e-02 5.280802249908447266e-01 -1.628327846527099609e+00 3.653581440448760986e-01 -3.532316982746124268e-01 6.259192824363708496e-01 2.513888478279113770e-01 2.534415721893310547e+00 -8.984869122505187988e-01 7.466340065002441406e-02 -3.618694841861724854e-01 5.713254213333129883e-01
-1.238486886024475098e+00 -1.892647624015808105e+00 -1.239775180816650391e+00 -2.261191904544830322e-01 -5.520644038915634155e-02 -1.954653114080429077e-01 -1.167322516441345215e+00 -4.624376595020294189e-01 -3.604035377502441406e-01 -1.583927392959594727e+00 1.233899950981140137e+00 -7.601054906845092773e-01 1.526764988899230957e+00 -3.752252757549285889e-01 1.896596848964691162e-01 6.479858756065368652e-01 1.334934532642364502e-01 1.366474747657775879e+00 1.692029461264610291e-02 -8.483700454235076904e-02 -3.912878334522247314e-01 -2.287580519914627075e-01 -7.043686229735612869e-03 -5.324665307998657227e-01 -1.822263121604919434e+00 1.319251537322998047e+00 1.546100974082946777e-01 -8.380738496780395508e-01 -2.952764034271240234e+00 -1.840498208999633789e+00 1.541277915239334106e-01 1.478725224733352661e-01
1.011158525943756104e-01 -2.673960626125335693e-01 -2.444739192724227905e-01 1.930021047592163086e-01 5.578366518020629883e-01 7.165761590003967285e-01 6.786815822124481201e-02 3.989286422729492188e-01 1.084992215037345886e-01 -1.378607600927352905e-01 -2.403249591588973999e-01 -2.731194496154785156e+00 -2.872529067099094391e-02 5.045912265777587891e-01 1.296266674995422363e+00 -2.105703115463256836e+00 -1.985715866088867188e+00 5.132145285606384277e-01 1.036456108093261719e+00 -5.506151914596557617e-01 -5.797507166862487793e-01 -1.939743995666503906e+00 -1.111221194267272949e+00 5.258428454399108887e-01 1.699428081512451172e+00 -1.512351155281066895e+00 7.016071677207946777e-01 3.962401449680328369e-01 5.925561785697937012e-01 -6.586058139801025391e-01 -4.879227578639984131e-01 -6.332496404647827148e-01
9.083843827247619629e-01 -7.894190400838851929e-02 1.700379252433776855e+00 -4.634753465652465820e-01 2.219014406204223633e+00 -9.009417891502380371e-01 7.893450856208801270e-01 7.876732945442199707e-01 2.457620859146118164e+00 -9.121685028076171875e-01 1.347329974174499512e+00 1.398807406425476074e+00 -1.116759657859802246e+00 7.907816022634506226e-02 -3.396416425704956055e+00 1.657994627952575684e+00 1.012081727385520935e-01 -7.164350152015686035e-01 7.201188802719116211e-02 4.547232091426849365e-01 3.538822829723358154e-01 -8.403654098510742188e-01 8.046582341194152832e-01 1.307960152626037598e+00 1.263527154922485352e+00 -4.866046905517578125e-01 -7.798046469688415527e-01 -4.554425179958343506e-01 9.468787908554077148e-02 -1.043137073516845703e+00 1.770469427108764648e+00 -7.882942557334899902e-01
1.421959847211837769e-01 5.721266865730285645e-01 4.576439857482910156e-01 1.443095445632934570e+00 -7.311714887619018555e-01 -2.411398738622665405e-01 -8.297214508056640625e-01 1.249038100242614746e+00 1.686573863029479980e+00 -1.909063935279846191e+00 -8.264274001121520996e-01 9.508222341537475586e-01 2.156987428665161133e+00 -7.215163707733154297e-01 3.864013254642486572e-01 3.029868006706237793e-01 4.655284285545349121e-01 -9.699320793151855469e-01 8.933116197586059570e-01 6.868328452110290527e-01 4.134025573730468750e-01 -2.251058101654052734e+00 8.497580289840698242e-01 -3.248180449008941650e-01 -2.870201766490936279e-01 -7.191789150238037109e-01 1.239389777183532715e+00 -1.022955536842346191e+00 1.829804033041000366e-01 3.466922044754028320e-02 -6.465914845466613770e-01 -3.954768478870391846e-01
1.219353079795837402e+00 -8.096962571144104004e-01 1.093866229057312012e+00 -1.300472617149353027e+00 1.149349570274353027e+00 -5.028076767921447754e-01 -5.234763622283935547e-01 1.490926742553710938e+00 5.822723731398582458e-02 1.283612102270126343e-01 5.062234401702880859e-01 5.661134719848632812e-01 1.126728534698486328e+00 -4.297876954078674316e-01 2.966485619544982910e-01 -3.020202636718750000e+00 -1.144267797470092773e+00 9.874249100685119629e-01 -7.813278436660766602e-01 1.701678276062011719e+00 1.643642783164978027e-01 1.058666706085205078e+00 3.397048711776733398e-01 -1.838974833488464355e+00 5.607149004936218262e-01 -5.415894985198974609e-01 1.203569650650024414e+00 2.522455751895904541e-01 -1.699048995971679688e+00 2.536360263824462891e+00 -1.017127633094787598e-01 1.272589921951293945e+00
1.078254818916320801e+00 -1.783839464187622070e-01 -7.595791816711425781e-01 -1.456573158502578735e-01 5.068194866180419922e-01 -1.969706825911998749e-02 -1.149712681770324707e+00 -9.032911062240600586e-01 -6.020517349243164062e-01 5.517704486846923828e-01 7.417063713073730469e-01 -1.771017074584960938e+00 -1.000891566276550293e+00 2.194622457027435303e-01 2.075182199478149414e-01 -3.043483793735504150e-01 1.812380194664001465e+00 1.460594177246093750e+00 -1.726160198450088501e-02 5.974177122116088867e-01 -6.108087897300720215e-01 6.041985005140304565e-03 3.029461503028869629e-01 -6.247955560684204102e-01 8.232746124267578125e-01 8.303009867668151855e-01 -1.713806629180908203e+00 -2.621709108352661133e+00 -1.447281599044799805e+00 -8.595570325851440430e-01 1.383263170719146729e-01 3.431224822998046875e-01
1.194684028625488281e+00 -2.787671387195587158e-01 -9.437976479530334473e-01 -1.201483368873596191e+00 1.063910841941833496e+00 -1.076707839965820312e+00 -5.575434565544128418e-01 -1.889584027230739594e-02 2.294252812862396240e-01 -2.254078090190887451e-01 2.441978931427001953e+00 -8.310709893703460693e-02 -6.598679423332214355e-01 -4.783913493156433105e-02 6.485392451286315918e-01 2.174101322889328003e-01 -9.941090345382690430e-01 3.153676390647888184e-01 -9.549113512039184570e-01 7.210966348648071289e-01 -1.742994934320449829e-01 3.622209727764129639e-01 1.421560883522033691e+00 2.366833686828613281e+00 1.304381012916564941e+00 7.661232948303222656e-01 -5.019625425338745117e-01 1.016568422317504883e+00 1.738302111625671387e-01 6.980114579200744629e-01 -7.339054942131042480e-01 5.558694601058959961e-01
-1.743014335632324219e+00 3.299621045589447021e-01 -8.421408534049987793e-01 -1.011702790856361389e-01 1.212529540061950684e+00 -3.583241701126098633e-01 7.559610009193420410e-01 -2.386743724346160889e-01 -8.006657958030700684e-01 7.917554378509521484e-01 5.991263389587402344e-01 -5.352630019187927246e-01 1.217788577079772949e+00 -9.764181375503540039e-01 -1.625166177749633789e+00 -4.979741871356964111e-01 -4.445503354072570801e-01 4.346239864826202393e-01 1.425350755453109741e-01 -5.209628343582153320e-01 7.946370840072631836e-01 -6.218036413192749023e-01 1.931357145309448242e+00 2.113119512796401978e-01 3.882254362106323242e-01 -1.491637945175170898e+00 2.835479080677032471e-01 -3.998673856258392334e-01 -1.434390693902969360e-01 1.076862573623657227e+00 1.014347314834594727e+00 1.087976455688476562e+00
5.107342600822448730e-01 1.536482810974121094e+00 6.625955104827880859e-01 -5.424859523773193359e-01 1.945857703685760498e-02 -2.892390787601470947e-01 -9.537498652935028076e-02 -3.303847908973693848e-01 1.218253254890441895e+00 1.984025955200195312e+00 2.122712850570678711e+00 -2.945429086685180664e-01 1.427841067314147949e+00 -1.247294545173645020e+00 5.728639364242553711e-01 -1.131485939025878906e+00 2.294148802757263184e-01 1.042217612266540527e+00 -6.313412189483642578e-01 -7.528446912765502930e-01 8.557946681976318359e-01 -1.068482160568237305e+00 -9.163486957550048828e-01 3.345967456698417664e-02 2.844628989696502686e-01 -7.468380928039550781e-01 1.093405932188034058e-01 3.602979779243469238e-01 -6.286721825599670410e-01 1.902002990245819092e-01 -1.145088076591491699e+00 -1.821492910385131836e+00
-1.949447274208068848e+00 5.437875986099243164e-01 -3.693240582942962646e-01 1.650453329086303711e+00 -1.157353520393371582e+00 1.404574215412139893e-01 5.263367295265197754e-01 8.058793842792510986e-03 8.133601546287536621e-01 9.043406844139099121e-01 -3.736113011837005615e-01 -1.343120634555816650e-01 -4.126181602478027344e-01 -3.004083633422851562e+00 2.087913274765014648e+00 -1.539331674575805664e+00 -6.127592325210571289e-01 -8.084156513214111328e-01 3.189589381217956543e-01 -5.974681973457336426e-01 1.523506283760070801e+00 6.472574472427368164e-01 1.457680225372314453e+00 -7.000099122524261475e-02 -1.708441376686096191e-01 -6.845757365226745605e-01 1.665747612714767456e-01 2.366791814565658569e-01 8.638554811477661133e-01 9.445520639419555664e-01 -1.249340891838073730e+00 3.675557672977447510e-01
-3.227192640304565430e+00 -3.812498450279235840e-01 1.470220327377319336e+00 -8.586174249649047852e-01 1.542589068412780762e+00 6.440532803535461426e-01 1.856879144906997681e-01 7.596169710159301758e-01 -1.192790746688842773e+00 1.025337696075439453e+00 2.235451638698577881e-01 -3.219570517539978027e-01 -5.475334525108337402e-01 -1.033530712127685547e+00 -9.192468523979187012e-01 -1.431927829980850220e-01 9.732798933982849121e-01 1.031084638088941574e-02 4.477503001689910889e-01 2.381679564714431763e-01 -7.917109876871109009e-02 -1.874773859977722168e+00 -4.064603149890899658e-01 5.533686280250549316e-01 1.470525622367858887e+00 -6.764609217643737793e-01 -1.394721269607543945e+00 2.262100279331207275e-01 -1.513528108596801758e+00 8.126127123832702637e-01 -4.022724330425262451e-01 1.505851626396179199e+00
-6.769359111785888672e-02 -4.841228425502777100e-01 -4.286040961742401123e-01 4.661022219806909561e-03 1.585172295570373535e+00 -1.304686307907104492e+00 -2.813234090805053711e+00 -5.379351321607828140e-03 -1.407020449638366699e+00 1.802771240472793579e-01 5.397920012474060059e-01 -4.504453763365745544e-02 9.063203632831573486e-02 1.910392045974731445e+00 2.035001069307327271e-01 1.443153738975524902e+00 5.353279709815979004e-01 -1.830475687980651855e+00 3.148707151412963867e-01 4.693865776062011719e-01 -9.949885606765747070e-01 -7.665498182177543640e-03 -6.542452573776245117e-01 2.011692523956298828e+00 8.111559748649597168e-01 2.281632274389266968e-01 8.074265718460083008e-01 1.619031876325607300e-01 -3.969803452491760254e-01 3.051195992156863213e-03 2.358708083629608154e-01 3.381158709526062012e-01
5.603409186005592346e-02 -1.664556741714477539e+00 7.378970086574554443e-02 1.584371447563171387e+00 -7.841988801956176758e-01 -2.918443679809570312e-01 -4.541819393634796143e-01 -1.923377156257629395e+00 2.249584197998046875e-01 -1.574243903160095215e+00 -1.689627468585968018e-01 5.128270387649536133e-01 -4.453891515731811523e-01 4.151008725166320801e-01 -3.639388084411621094e-01 7.516438961029052734e-01 9.763032197952270508e-02 -1.838476955890655518e-02 2.615516483783721924e-01 7.762196660041809082e-01 4.565844535827636719e-01 -5.549116730690002441e-01 -7.036670297384262085e-02 -1.292810082435607910e+00 -1.117017745971679688e+00 -1.101608723402023315e-01 5.407986640930175781e-01 1.068958520889282227e+00 1.023565411567687988e+00 4.298354983329772949e-01 1.338811039924621582e+00 -1.165274262428283691e+00
1.346140027046203613e+00 -1.213584899902343750e+00 -4.761698246002197266e-01 -9.000536203384399414e-01 -1.444648504257202148e+00 -4.683091938495635986e-01 6.236684918403625488e-01 7.417044639587402344e-01 -1.537441164255142212e-01 3.886547684669494629e-01 -2.172271907329559326e-01 3.436646759510040283e-01 7.075221836566925049e-02 1.850302100181579590e+00 4.124529659748077393e-01 -4.301132261753082275e-01 -6.195454597473144531e-01 -2.571623027324676514e-02 7.508491277694702148e-01 7.947682142257690430e-01 -2.529330551624298096e-01 -2.487336546182632446e-01 5.869002938270568848e-01 1.247418522834777832e+00 4.712220430374145508e-01 7.382768392562866211e-01 5.289700627326965332e-01 8.126090764999389648e-01 1.727041482925415039e+00 1.167026400566101074e+00 1.340646624565124512e+00 8.881020545959472656e-01
-9.415061473846435547e-01 -4.402034357190132141e-02 1.584210038185119629e+00 -1.007313966751098633e+00 5.734873414039611816e-01 1.471980929374694824e+00 2.554747760295867920e-01 -9.235323220491409302e-02 -1.068840503692626953e+00 -2.054425239562988281e+00 -1.958791375160217285e+00 -2.349057048559188843e-01 1.139085143804550171e-01 1.851545453071594238e+00 1.322912216186523438e+00 -1.389244645833969116e-01 -1.964177250862121582e+00 8.956019580364227295e-02 -4.833120405673980713e-01 -8.060572147369384766e-01 -4.870818257331848145e-01 -1.200048685073852539e+00 -1.165643095970153809e+00 -5.032932758331298828e-01 8.843148946762084961e-01 -4.025639593601226807e-01 -2.669450938701629639e-01 6.049548387527465820e-01 3.947202563285827637e-01 -3.648629188537597656e-01 1.218006983399391174e-01 1.487677216529846191e+00
4.480923414230346680e-01 -9.160004258155822754e-01 4.401357471942901611e-01 -5.695005059242248535e-01 -3.860828876495361328e-01 2.413033396005630493e-01 -5.258851051330566406e-01 1.759488880634307861e-01 -7.058063745498657227e-01 -4.991120398044586182e-01 -1.725684762001037598e+00 5.766584873199462891e-01 2.380453050136566162e-01 -1.724956870079040527e+00 1.012863993644714355e+00 -4.555808901786804199e-01 1.539084076881408691e+00 -6.185603737831115723e-01 -1.749647594988346100e-02 -5.073229074478149414e-01 -7.138442397117614746e-01 -1.288743019104003906e+00 6.271139979362487793e-01 2.169507741928100586e+00 -8.519923686981201172e-01 4.466869533061981201e-01 1.009569168090820312e+00 1.255688816308975220e-01 5.216371417045593262e-01 -2.394897788763046265e-01 -3.386426866054534912e-01 4.885632544755935669e-02
-8.051042556762695312e-01 1.533153533935546875e+00 -1.417205184698104858e-01 -1.300449520349502563e-01 1.206812381744384766e+00 7.113733291625976562e-01 1.275779247283935547e+00 1.253907084465026855e+00 -1.128188014030456543e+00 -1.302614569664001465e+00 -1.251181125640869141e+00 -1.939748823642730713e-01 8.660799860954284668e-01 5.940694212913513184e-01 1.339544206857681274e-01 -5.624937415122985840e-01 3.978085815906524658e-01 -3.844447433948516846e-02 -4.741517603397369385e-01 1.176985055208206177e-01 1.330674171447753906e+00 9.494686126708984375e-01 -4.326629266142845154e-02 9.653522372245788574e-01 1.279610037803649902e+00 -3.559799790382385254e-01 1.402801394462585449e+00 5.446994304656982422e-01 -3.229656219482421875e-01 2.265372127294540405e-01 5.477778315544128418e-01 -4.884942471981048584e-01
-2.239915430545806885e-01 5.851721167564392090e-01 -4.630046188831329346e-01 -1.242118239402770996e+00 -3.913302123546600342e-01 2.932901680469512939e-01 -4.466816484928131104e-01 -8.677991032600402832e-01 1.041533127427101135e-01 8.362411260604858398e-01 -6.222048997879028320e-01 3.034256100654602051e-01 4.231489300727844238e-01 -1.911758661270141602e+00 2.276229411363601685e-01 -2.691399157047271729e-01 -6.569554805755615234e-01 1.487271338701248169e-01 -1.584231972694396973e+00 -1.435957670211791992e+00 -1.132018789649009705e-01 -5.513271093368530273e-01 9.735171198844909668e-01 4.618884027004241943e-01 -4.167169332504272461e-01 9.983094930648803711e-01 -1.005152426660060883e-02 7.347678542137145996e-01 -1.393002122640609741e-01 -4.423143863677978516e-01 1.173811554908752441e+00 1.582037806510925293e+00
